{"learner":{"attributes":{"best_iteration":"88","best_score":"1.264818361622537","scikit_learn":"{\"_estimator_type\": \"regressor\"}"},"feature_names":[],"feature_types":[],"gradient_booster":{"model":{"cats":{"enc":[],"feature_segments":[],"sorted_idx":[]},"gbtree_model_param":{"num_parallel_tree":"1","num_trees":"109"},"iteration_indptr":[0,1,2,3,4,5,6,7,8,9,10,11,12,13,14,15,16,17,18,19,20,21,22,23,24,25,26,27,28,29,30,31,32,33,34,35,36,37,38,39,40,41,42,43,44,45,46,47,48,49,50,51,52,53,54,55,56,57,58,59,60,61,62,63,64,65,66,67,68,69,70,71,72,73,74,75,76,77,78,79,80,81,82,83,84,85,86,87,88,89,90,91,92,93,94,95,96,97,98,99,100,101,102,103,104,105,106,107,108,109],"tree_info":[0,0,0,0,0,0,0,0,0,0,0,0,0,0,0,0,0,0,0,0,0,0,0,0,0,0,0,0,0,0,0,0,0,0,0,0,0,0,0,0,0,0,0,0,0,0,0,0,0,0,0,0,0,0,0,0,0,0,0,0,0,0,0,0,0,0,0,0,0,0,0,0,0,0,0,0,0,0,0,0,0,0,0,0,0,0,0,0,0,0,0,0,0,0,0,0,0,0,0,0,0,0,0,0,0,0,0,0,0],"trees":[{"base_weights":[-0E0,-9.873047E-1,3.408631E-1,-9.989362E-2,-8.4705883E-1,4.8302343E-1,-3.7322515E-1,-5E-1,-8.815789E-1,9.7431354E-2,8.0609214E-1,-6.6339064E-1,9.885057E-2,-7.5E-2,-2.857143E-1,-9.2424244E-1,-5.4545456E-1,-3.5971224E-1,8.2758623E-1,3.2608697E-1,8.6021507E-1,-1.3445379E-1,-8.788927E-1,2.5E-1,-7.5E-2,-9.795918E-2,-7.222222E-1,-8.75E-2,2.5E-1,-6.492147E-1,9.9186994E-2,6.9008267E-1,9.948454E-2,2.56E-1,9.2857145E-2,7.550725E-1,9.9807695E-2,-2.9807693E-1,9.375E-2,-9.879518E-2,-1.9512194E-1,5E-2,-0E0,-2.857143E-2,-9.166667E-2,6.666667E-2,-5E-2,-1.2637364E-2,-8.9030616E-2,8.975904E-2,2.3376623E-2,3.3783786E-2,1.34615395E-2,9.9710144E-2,5.115607E-2,-4.8275862E-2,-2.2368422E-2,-8.148148E-2,9.3333334E-2],"categories":[],"categories_nodes":[],"categories_segments":[],"categories_sizes":[],"default_left":[0,0,0,0,0,0,0,0,0,0,0,0,0,0,0,0,0,0,0,0,0,0,0,0,0,0,0,0,0,0,0,0,0,0,0,0,0,0,0,0,0,0,0,0,0,0,0,0,0,0,0,0,0,0,0,0,0,0,0],"id":0,"left_children":[1,3,5,-1,7,9,11,13,15,17,19,21,-1,-1,23,25,27,29,31,33,35,37,39,41,-1,-1,43,-1,45,47,-1,49,-1,51,-1,53,-1,55,-1,-1,57,-1,-1,-1,-1,-1,-1,-1,-1,-1,-1,-1,-1,-1,-1,-1,-1,-1,-1],"loss_changes":[1.3427776E3,8.2421875E-1,3.0127386E2,0E0,5.775528E-1,3.0811444E2,1.9545355E2,3.2142854E-1,5.857277E-1,3.7714163E2,3.468756E1,4.6274536E1,0E0,0E0,1.9285715E0,3.0509949E-2,3.1022727E0,2.7258795E2,9.317932E0,5.5895147E0,1.6771057E1,2.1151625E1,2.1358368E1,2.5E-1,0E0,0E0,1.265872E0,0E0,1.5833334E0,7.2115555E1,0E0,2.2704956E1,0E0,1.1962528E0,0E0,4.0156372E1,0E0,1.3208675E0,0E0,0E0,2.9431616E1,0E0,0E0,0E0,0E0,0E0,0E0,0E0,0E0,0E0,0E0,0E0,0E0,0E0,0E0,0E0,0E0,0E0,0E0],"parents":[2147483647,0,0,1,1,2,2,4,4,5,5,6,6,7,7,8,8,9,9,10,10,11,11,14,14,15,15,16,16,17,17,18,18,19,19,20,20,21,21,22,22,23,23,26,26,28,28,29,29,31,31,33,33,35,35,37,37,40,40],"right_children":[2,4,6,-1,8,10,12,14,16,18,20,22,-1,-1,24,26,28,30,32,34,36,38,40,42,-1,-1,44,-1,46,48,-1,50,-1,52,-1,54,-1,56,-1,-1,58,-1,-1,-1,-1,-1,-1,-1,-1,-1,-1,-1,-1,-1,-1,-1,-1,-1,-1],"split_conditions":[4E2,1E0,2.5881904E-1,-1.2314568E0,-9.659258E-1,-7.0710677E-1,1.5E3,5E0,1.5E1,2.5881904E-1,4.5E2,1E0,4.956623E-1,-1.4821129E-1,1.2E1,7.0710677E-1,2.5881904E-1,1.5E3,4E0,1E0,4E0,1E0,1E0,1E0,-3.495144E-1,-1.1440715E0,-5E-1,-1.35823E0,-7.0710677E-1,1E0,4.6266538E-1,3E0,2.5899982E0,1E1,1.4665852E0,6E2,1.4318402E0,5.5E2,1.245263E0,-9.9716944E-1,4E0,1.992798E-3,-1.7385006E-1,-1.9287395E-1,-1.793541E-1,1.6551876E-1,-2.3589134E-1,-2.198944E-2,-8.430765E-1,1.8058846E0,3.5752296E-2,4.6735E-2,2.3981476E-2,1.8849449E0,1.6325302E-1,-1.1026116E-1,-2.6851272E-2,-3.2374057E-1,6.323191E-1],"split_indices":[5,7,0,0,1,0,5,4,4,1,5,3,0,0,4,1,1,5,3,7,3,7,7,2,0,0,0,0,0,3,0,3,0,4,0,5,0,5,0,0,3,0,0,0,0,0,0,0,0,0,0,0,0,0,0,0,0,0,0],"split_type":[0,0,0,0,0,0,0,0,0,0,0,0,0,0,0,0,0,0,0,0,0,0,0,0,0,0,0,0,0,0,0,0,0,0,0,0,0,0,0,0,0,0,0,0,0,0,0,0,0,0,0,0,0,0,0,0,0,0,0],"sum_hessian":[3.988E3,1.023E3,2.965E3,9.39E2,8.4E1,2.473E3,4.92E2,9E0,7.5E1,1.128E3,1.345E3,4.06E2,8.6E1,3E0,6E0,6.5E1,1E1,6.94E2,4.34E2,1.37E2,1.208E3,1.18E2,2.88E2,3E0,3E0,4.8E1,1.7E1,7E0,3E0,5.72E2,1.22E2,2.41E2,1.93E2,1.24E2,1.3E1,6.89E2,5.19E2,1.03E2,1.5E1,2.48E2,4E1,1E0,2E0,6E0,1.1E1,2E0,1E0,1.81E2,3.91E2,1.65E2,7.6E1,7.3E1,5.1E1,3.44E2,3.45E2,2.8E1,7.5E1,2.6E1,1.4E1],"tree_param":{"num_deleted":"0","num_feature":"8","num_nodes":"59","size_leaf_vector":"1"}},{"base_weights":[-9.526197E-3,-9.716797E-1,3.2265678E-1,-9.989362E-2,-6.5882355E-1,1.7933007E-1,9.980732E-2,-4.5238096E-1,-8.4090906E-1,3.462292E-1,-6.5847665E-1,-7.1428575E-2,-6.2068963E-1,-9.0909094E-1,-5.833333E-1,-1.4395605E-1,7.396293E-1,-1.1764706E-1,-8.788927E-1,3E-1,-8.0000006E-2,-1.25E-1,-7.7272725E-1,-4E-1,-9.6551724E-2,-8.888889E-2,2.5E-1,-6.352531E-1,6.893491E-1,2.826087E-1,8.0220884E-1,-2.7884614E-1,9.375E-2,-9.879518E-2,-1.9512194E-1,5E-2,-0E0,-7.5E-2,4.0000003E-2,-8.421053E-2,-2.5E-2,-0E0,-6.666667E-2,6.666667E-2,-5E-2,-9.34066E-3,-8.852041E-2,5.6611568E-2,9.896907E-2,2.08E-2,9.2857145E-2,9.678112E-2,6.553673E-2,-4.8275862E-2,-1.9736843E-2,-8.148148E-2,9.3333334E-2],"categories":[],"categories_nodes":[],"categories_segments":[],"categories_sizes":[],"default_left":[0,0,0,0,0,0,0,0,0,0,0,0,0,0,0,0,0,0,0,0,0,0,0,0,0,0,0,0,0,0,0,0,0,0,0,0,0,0,0,0,0,0,0,0,0,0,0,0,0,0,0,0,0,0,0,0,0],"id":1,"left_children":[1,3,5,-1,7,9,-1,11,13,15,17,19,21,23,25,27,29,31,33,35,-1,37,39,41,-1,-1,43,45,47,49,51,53,-1,-1,55,-1,-1,-1,-1,-1,-1,-1,-1,-1,-1,-1,-1,-1,-1,-1,-1,-1,-1,-1,-1,-1,-1],"loss_changes":[1.2752418E3,8.073853E0,2.869453E2,0E0,2.8147545E0,3.425299E2,0E0,2.6486044E0,2.4242592E-1,3.9388348E2,4.8414078E1,4.028571E0,2.0889502E0,5.617542E-1,3.2777777E0,3.7299222E2,3.2177246E1,2.050198E1,2.1358368E1,6E-1,0E0,2.925E0,5.873203E-1,5.3333336E-1,0E0,0E0,1.5833334E0,7.752161E1,1.1949814E1,6.4576883E0,2.3585754E1,1.6326084E0,0E0,0E0,2.9431616E1,0E0,0E0,0E0,0E0,0E0,0E0,0E0,0E0,0E0,0E0,0E0,0E0,0E0,0E0,0E0,0E0,0E0,0E0,0E0,0E0,0E0,0E0],"parents":[2147483647,0,0,1,1,2,2,4,4,5,5,7,7,8,8,9,9,10,10,11,11,12,12,13,13,14,14,15,15,16,16,17,17,18,18,19,19,21,21,22,22,23,23,26,26,27,27,28,28,29,29,30,30,31,31,34,34],"right_children":[2,4,6,-1,8,10,-1,12,14,16,18,20,22,24,26,28,30,32,34,36,-1,38,40,42,-1,-1,44,46,48,50,52,54,-1,-1,56,-1,-1,-1,-1,-1,-1,-1,-1,-1,-1,-1,-1,-1,-1,-1,-1,-1,-1,-1,-1,-1,-1],"split_conditions":[4E2,1E0,1.5E3,-1.108311E0,8E0,2.5881904E-1,2.4186027E0,2.5E2,1.5E1,-7.0710677E-1,1E0,-5E-1,-7.0710677E-1,-9.659258E-1,2.5881904E-1,2.5881904E-1,4.5E2,1E0,1E0,7.0710677E-1,-8.8874435E-1,4E0,2E0,1.2E1,-2.5442162E-1,-1.2157348E0,-7.0710677E-1,1E0,4E0,1E0,6E2,5.5E2,1.1207367E0,-8.974525E-1,4E0,4.215279E-2,-7.285996E-2,-1.5675087E-1,2.0578956E-2,-1.0782468E0,-1.9697953E-2,-2.766657E-1,-2.1293508E-1,1.4896679E-1,-2.1230201E-1,-1.979065E-2,-7.5876904E-1,3.1136551E-1,9.6517795E-1,3.9429285E-2,1.3199269E0,1.5574715E0,9.5252705E-1,-9.9235155E-2,-2.4166107E-2,-2.913664E-1,5.69087E-1],"split_indices":[5,7,5,0,4,0,0,5,4,0,3,0,1,1,1,1,5,7,7,1,0,4,2,4,0,0,0,3,3,7,5,5,0,0,3,0,0,0,0,0,0,0,0,0,0,0,0,0,0,0,0,0,0,0,0,0,0],"split_type":[0,0,0,0,0,0,0,0,0,0,0,0,0,0,0,0,0,0,0,0,0,0,0,0,0,0,0,0,0,0,0,0,0,0,0,0,0,0,0,0,0,0,0,0,0,0,0,0,0,0,0,0,0,0,0,0,0],"sum_hessian":[3.988E3,1.023E3,2.965E3,9.39E2,8.4E1,2.447E3,5.18E2,4.1E1,4.3E1,2.041E3,4.06E2,1.3E1,2.8E1,3.2E1,1.1E1,9.09E2,1.132E3,1.18E2,2.88E2,9E0,4E0,7E0,2.1E1,4E0,2.8E1,8E0,3E0,5.72E2,3.37E2,1.37E2,9.95E2,1.03E2,1.5E1,2.48E2,4E1,5E0,4E0,3E0,4E0,1.8E1,3E0,2E0,2E0,2E0,1E0,1.81E2,3.91E2,2.41E2,9.6E1,1.24E2,1.3E1,4.65E2,5.3E2,2.8E1,7.5E1,2.6E1,1.4E1],"tree_param":{"num_deleted":"0","num_feature":"8","num_nodes":"57","size_leaf_vector":"1"}},{"base_weights":[-5.9664078E-2,-9.6191406E-1,2.5185436E-1,-9.989362E-2,-5.411765E-1,1.18872546E-1,8.786127E-1,-2.1428572E-1,-8.4090906E-1,2.6885405E-1,-6.3390666E-1,8.1948423E-1,9.9415205E-2,-6.4E-1,3.888889E-1,-5E-1,-8.717949E-2,-1.6373627E-1,6.1606354E-1,-6.7226894E-2,-8.650519E-1,6.504065E-1,9.07489E-1,-9.166667E-2,-3.5714287E-1,8.3333336E-2,1.5384616E-1,-0E0,-7.5E-2,-6.2478185E-1,6.183432E-1,9.97076E-2,4.5075756E-1,-2.2115384E-1,9.375E-2,-9.7991966E-2,-1.4634146E-1,1E-1,6.9298244E-1,9.929078E-2,7.586207E-1,1.6666668E-2,-6.666667E-2,5.714286E-2,-2.857143E-2,5E-2,-5E-2,-9.34066E-3,-8.69898E-2,4.6694215E-2,9.896907E-2,1.0493827E-2,9.967427E-2,-4.1379314E-2,-1.4473684E-2,-7.4074075E-2,9.3333334E-2,5.714286E-2,-7.5E-2,8.166667E-2,5.454546E-2,8.913044E-2,5.952381E-2],"categories":[],"categories_nodes":[],"categories_segments":[],"categories_sizes":[],"default_left":[0,0,0,0,0,0,0,0,0,0,0,0,0,0,0,0,0,0,0,0,0,0,0,0,0,0,0,0,0,0,0,0,0,0,0,0,0,0,0,0,0,0,0,0,0,0,0,0,0,0,0,0,0,0,0,0,0,0,0,0,0,0,0],"id":2,"left_children":[1,3,5,-1,7,9,11,13,15,17,19,21,-1,23,25,27,-1,29,31,33,35,37,39,-1,41,-1,43,45,-1,47,49,-1,51,53,-1,-1,55,57,59,-1,61,-1,-1,-1,-1,-1,-1,-1,-1,-1,-1,-1,-1,-1,-1,-1,-1,-1,-1,-1,-1,-1,-1],"loss_changes":[1.1214205E3,1.540979E1,2.4710413E2,0E0,8.148088E0,2.765569E2,2.730957E0,1.103365E1,2.7389526E-2,3.0680817E2,5.325287E1,4.6027527E0,0E0,1.6290474E0,1.7521367E0,7.5E-1,0E0,3.2850894E2,7.091104E1,1.8611223E1,2.3715485E1,2.8130913E0,2.1333313E0,0E0,2.3809524E0,0E0,2.5494506E0,1E0,0E0,7.455121E1,1.854103E1,0E0,1.4943465E2,1.4710841E0,0E0,0E0,2.7003433E1,4.4357142E0,1.6346893E0,0E0,1.3554649E0,0E0,0E0,0E0,0E0,0E0,0E0,0E0,0E0,0E0,0E0,0E0,0E0,0E0,0E0,0E0,0E0,0E0,0E0,0E0,0E0,0E0,0E0],"parents":[2147483647,0,0,1,1,2,2,4,4,5,5,6,6,7,7,8,8,9,9,10,10,11,11,13,13,14,14,15,15,17,17,18,18,19,19,20,20,21,21,22,22,24,24,26,26,27,27,29,29,30,30,32,32,33,33,36,36,37,37,38,38,40,40],"right_children":[2,4,6,-1,8,10,12,14,16,18,20,22,-1,24,26,28,-1,30,32,34,36,38,40,-1,42,-1,44,46,-1,48,50,-1,52,54,-1,-1,56,58,60,-1,62,-1,-1,-1,-1,-1,-1,-1,-1,-1,-1,-1,-1,-1,-1,-1,-1,-1,-1,-1,-1,-1,-1],"split_conditions":[4E2,1E0,1.5E3,-9.9748003E-1,8E0,2.5881904E-1,2.5881904E-1,2.5881904E-1,-9.659258E-1,-7.0710677E-1,1E0,-7.0710677E-1,2.3175488E0,-7.0710677E-1,-8.660254E-1,1.2E1,-3.5090104E-1,2.5881904E-1,1E0,1E0,1E0,1E0,2.5881904E-1,-1.2141564E0,1.2246469E-16,4.7914505E-2,1E0,1E0,-1.9298935E-1,1E0,4E0,1.7135079E0,4E0,5.5E2,1.0086632E0,-8.0770713E-1,4E0,-8.660254E-1,5E0,2.3679173E0,5E0,8.96492E-3,-7.343379E-1,4.4128038E-2,-7.357521E-2,2.9460145E-2,-5.274586E-1,-1.7811585E-2,-6.82892E-1,2.8022882E-1,8.6866E-1,2.3410415E-2,9.390484E-1,-8.93116E-2,-2.1749496E-2,-2.6222974E-1,5.1217824E-1,6.3754655E-2,-1.1122131E-1,1.9182281E-1,1.5726891E-1,2.0459442E-1,1.8309174E-1],"split_indices":[5,7,5,0,4,0,1,1,1,0,3,0,0,0,0,4,0,1,3,7,7,4,0,0,0,0,2,2,0,3,3,0,3,5,0,0,3,0,3,0,3,0,0,0,0,0,0,0,0,0,0,0,0,0,0,0,0,0,0,0,0,0,0],"split_type":[0,0,0,0,0,0,0,0,0,0,0,0,0,0,0,0,0,0,0,0,0,0,0,0,0,0,0,0,0,0,0,0,0,0,0,0,0,0,0,0,0,0,0,0,0,0,0,0,0,0,0,0,0,0,0,0,0,0,0,0,0,0,0],"sum_hessian":[3.988E3,1.023E3,2.965E3,9.39E2,8.4E1,2.447E3,5.18E2,4.1E1,4.3E1,2.041E3,4.06E2,3.48E2,1.7E2,2.4E1,1.7E1,5E0,3.8E1,9.09E2,1.132E3,1.18E2,2.88E2,1.22E2,2.26E2,1.1E1,1.3E1,5E0,1.2E1,2E0,3E0,5.72E2,3.37E2,3.41E2,7.91E2,1.03E2,1.5E1,2.48E2,4E1,9E0,1.13E2,1.4E2,8.6E1,5E0,8E0,6E0,6E0,1E0,1E0,1.81E2,3.91E2,2.41E2,9.6E1,4.85E2,3.06E2,2.8E1,7.5E1,2.6E1,1.4E1,6E0,3E0,5.9E1,5.4E1,4.5E1,4.1E1],"tree_param":{"num_deleted":"0","num_feature":"8","num_nodes":"63","size_leaf_vector":"1"}},{"base_weights":[-5.6154426E-2,-9.580078E-1,2.552259E-1,-9.989362E-2,-4.9411765E-1,1.2704249E-1,8.593449E-1,-7.222222E-1,-9.375E-2,2.7081293E-1,-5.945946E-1,7.9083097E-1,9.9415205E-2,-9.615385E-2,-4.827586E-1,5E-1,-5.263158E-1,-1.5494506E-1,6.125331E-1,-3.3613447E-2,-8.235294E-1,6.0162604E-1,8.8986784E-1,-2.857143E-1,-8.888889E-2,7E-1,-0E0,-1E-1,-8.9999996E-2,-5.968586E-1,5.946745E-1,9.97076E-2,4.4570708E-1,-1.826923E-1,9.375E-2,-9.4779116E-1,-4.8780486E-2,1E-1,6.403509E-1,9.929078E-2,7.126437E-1,-6.25E-3,-8.3333336E-2,8.571429E-2,2.5E-2,-6.666667E-2,6.666667E-2,1.25E-2,-6.666667E-2,-7.17349E-2,4.262295E-2,4.338843E-2,9.896907E-2,9.670782E-3,9.967427E-2,-2.7118644E-2,-6.521739E-3,-9.933775E-2,-8.686869E-2,-5.9259262E-2,9.3333334E-2,5.714286E-2,-7.5E-2,7.833334E-2,4.7272727E-2,8.0434784E-2,5.952381E-2],"categories":[],"categories_nodes":[],"categories_segments":[],"categories_sizes":[],"default_left":[0,0,0,0,0,0,0,0,0,0,0,0,0,0,0,0,0,0,0,0,0,0,0,0,0,0,0,0,0,0,0,0,0,0,0,0,0,0,0,0,0,0,0,0,0,0,0,0,0,0,0,0,0,0,0,0,0,0,0,0,0,0,0,0,0,0,0],"id":3,"left_children":[1,3,5,-1,7,9,11,13,15,17,19,21,-1,-1,23,25,27,29,31,33,35,37,39,41,-1,43,45,47,-1,49,51,-1,53,55,-1,57,59,61,63,-1,65,-1,-1,-1,-1,-1,-1,-1,-1,-1,-1,-1,-1,-1,-1,-1,-1,-1,-1,-1,-1,-1,-1,-1,-1,-1,-1],"loss_changes":[1.1204331E3,1.8948303E1,2.2957204E2,0E0,7.694975E0,2.5414122E2,4.0073853E0,2.6304169E0,8.481908E0,2.9718567E2,5.224257E1,6.0042877E0,0E0,0E0,2.0667758E0,1.4000001E0,2.936843E0,3.0180798E2,7.223956E1,1.7399199E1,2.7776276E1,2.3252869E0,3.4376984E0,2.5148807E0,0E0,4.9285698E-1,2.6666667E0,1.3583333E0,0E0,7.094072E1,2.1038574E1,0E0,1.5221393E2,1.0634813E0,0E0,3.4973145E-2,2.2450588E1,4.4357142E0,2.3619614E0,0E0,4.5791626E-1,0E0,0E0,0E0,0E0,0E0,0E0,0E0,0E0,0E0,0E0,0E0,0E0,0E0,0E0,0E0,0E0,0E0,0E0,0E0,0E0,0E0,0E0,0E0,0E0,0E0,0E0],"parents":[2147483647,0,0,1,1,2,2,4,4,5,5,6,6,7,7,8,8,9,9,10,10,11,11,14,14,15,15,16,16,17,17,18,18,19,19,20,20,21,21,22,22,23,23,25,25,26,26,27,27,29,29,30,30,32,32,33,33,35,35,36,36,37,37,38,38,40,40],"right_children":[2,4,6,-1,8,10,12,14,16,18,20,22,-1,-1,24,26,28,30,32,34,36,38,40,42,-1,44,46,48,-1,50,52,-1,54,56,-1,58,60,62,64,-1,66,-1,-1,-1,-1,-1,-1,-1,-1,-1,-1,-1,-1,-1,-1,-1,-1,-1,-1,-1,-1,-1,-1,-1,-1,-1,-1],"split_conditions":[4E2,1E0,1.5E3,-8.977322E-1,2.5881904E-1,2.5881904E-1,2.5881904E-1,-7.0710677E-1,-7.0710677E-1,-7.0710677E-1,1E0,-7.0710677E-1,2.0857937E0,-1.0903348E0,2.5881904E-1,1E1,5E0,2.5881904E-1,1E0,1E0,1E0,1E0,2.5881904E-1,1.2E1,-1.179875E0,-8.660254E-1,1.3E1,2E0,-1.5598145E-1,1E0,4E0,1.542157E0,4E0,5E-1,9.0779686E-1,4E0,4E0,-8.660254E-1,5E0,2.1311257E0,5E0,-6.095886E-3,-6.2028885E-2,3.0221177E-2,4.462433E-2,-8.2089424E-2,1.6916028E-1,3.480606E-2,-2.5272942E-1,-3.564168E-1,5.916811E-1,2.5220606E-1,7.81794E-1,2.1069337E-2,8.451435E-1,-5.6767654E-2,-1.5876008E-2,-9.1634005E-1,-2.3323746E-1,-2.3600674E-1,4.609606E-1,5.7379153E-2,-1.0009918E-1,1.726406E-1,1.4154206E-1,1.8413506E-1,1.6478272E-1],"split_indices":[5,7,5,0,1,0,1,0,0,0,3,0,0,0,0,4,4,1,3,7,7,4,0,4,0,0,4,2,0,7,3,0,3,0,0,3,3,0,3,0,3,0,0,0,0,0,0,0,0,0,0,0,0,0,0,0,0,0,0,0,0,0,0,0,0,0,0],"split_type":[0,0,0,0,0,0,0,0,0,0,0,0,0,0,0,0,0,0,0,0,0,0,0,0,0,0,0,0,0,0,0,0,0,0,0,0,0,0,0,0,0,0,0,0,0,0,0,0,0,0,0,0,0,0,0,0,0,0,0,0,0,0,0,0,0,0,0],"sum_hessian":[3.988E3,1.023E3,2.965E3,9.39E2,8.4E1,2.447E3,5.18E2,5.3E1,3.1E1,2.041E3,4.06E2,3.48E2,1.7E2,2.5E1,2.8E1,1.3E1,1.8E1,9.09E2,1.132E3,1.18E2,2.88E2,1.22E2,2.26E2,2E1,8E0,9E0,4E0,9E0,9E0,5.72E2,3.37E2,3.41E2,7.91E2,1.03E2,1.5E1,2.48E2,4E1,9E0,1.13E2,1.4E2,8.6E1,1.5E1,5E0,6E0,3E0,2E0,2E0,7E0,2E0,5.12E2,6E1,2.41E2,9.6E1,4.85E2,3.06E2,5.8E1,4.5E1,1.5E2,9.8E1,2.6E1,1.4E1,6E0,3E0,5.9E1,5.4E1,4.5E1,4.1E1],"tree_param":{"num_deleted":"0","num_feature":"8","num_nodes":"67","size_leaf_vector":"1"}},{"base_weights":[-5.364753E-2,-9.560547E-1,2.5792313E-1,-9.989362E-2,-4.7058824E-1,3.7793046E-1,-3.448276E-1,-7.222222E-1,-3.125E-2,2.8343666E-2,6.708767E-1,-5.5528253E-1,6.436782E-1,-9.615385E-2,-4.827586E-1,6.4285713E-1,-5.263158E-1,-3.5683453E-1,6.436782E-1,4.6432889E-1,9.9807695E-2,-0E0,-7.820069E-1,7.0422536E-1,3.529412E-1,-2.857143E-1,-8.888889E-2,8.888889E-2,1.6666667E-1,-1E-1,-8.9999996E-2,-5.47993E-1,5.365854E-1,3.5950413E-1,9.948454E-2,9.97076E-2,8.8477366E-2,-1.4423077E-1,9.375E-2,-9.076305E-1,-0E0,8.108108E-1,5.714286E-1,1.5384616E-1,8.0000006E-2,-6.25E-3,-8.3333336E-2,6.666667E-2,-2.5E-2,1.25E-2,-6.666667E-2,1.0439561E-2,-8.494898E-2,-1.0000001E-2,5.8771934E-2,9.893617E-2,-4.0268456E-3,4.0926643E-2,-2.7631579E-2,-3.448276E-2,-6.578948E-3,-9.933775E-2,-7.6767676E-2,-5.185185E-2,9.3333334E-2,8.611111E-2,-5E-2,-0E0,6.0606062E-2,-1.25E-2,5E-2],"categories":[],"categories_nodes":[],"categories_segments":[],"categories_sizes":[],"default_left":[0,0,0,0,0,0,0,0,0,0,0,0,0,0,0,0,0,0,0,0,0,0,0,0,0,0,0,0,0,0,0,0,0,0,0,0,0,0,0,0,0,0,0,0,0,0,0,0,0,0,0,0,0,0,0,0,0,0,0,0,0,0,0,0,0,0,0,0,0,0,0],"id":4,"left_children":[1,3,5,-1,7,9,11,13,15,17,19,21,23,-1,25,27,29,31,33,35,-1,37,39,41,43,45,-1,-1,47,49,-1,51,53,55,-1,-1,57,59,-1,61,63,65,67,69,-1,-1,-1,-1,-1,-1,-1,-1,-1,-1,-1,-1,-1,-1,-1,-1,-1,-1,-1,-1,-1,-1,-1,-1,-1,-1,-1],"loss_changes":[1.1218081E3,2.0847046E1,2.146745E2,0E0,9.374386E0,2.5334363E2,1.0291915E2,2.6304169E0,1.1017622E1,2.6781787E2,9.0502625E1,5.1239708E1,1.2829399E0,0E0,2.0667758E0,1.4920635E0,2.936843E0,1.1898947E2,4.3052124E1,1.6550517E2,0E0,1.6225962E1,2.839093E1,5.41626E-1,1.3900452E0,2.5148807E0,0E0,0E0,1.4166667E0,1.3583333E0,0E0,1.1279381E2,4.062557E0,6.0975384E1,0E0,0E0,5.6985607E1,1.6137617E0,0E0,2.2255554E0,2.0325926E1,2.870121E0,6.926403E-1,1.3173077E0,0E0,0E0,0E0,0E0,0E0,0E0,0E0,0E0,0E0,0E0,0E0,0E0,0E0,0E0,0E0,0E0,0E0,0E0,0E0,0E0,0E0,0E0,0E0,0E0,0E0,0E0,0E0],"parents":[2147483647,0,0,1,1,2,2,4,4,5,5,6,6,7,7,8,8,9,9,10,10,11,11,12,12,14,14,15,15,16,16,17,17,18,18,19,19,21,21,22,22,23,23,24,24,25,25,28,28,29,29,31,31,32,32,33,33,36,36,37,37,39,39,40,40,41,41,42,42,43,43],"right_children":[2,4,6,-1,8,10,12,14,16,18,20,22,24,-1,26,28,30,32,34,36,-1,38,40,42,44,46,-1,-1,48,50,-1,52,54,56,-1,-1,58,60,-1,62,64,66,68,70,-1,-1,-1,-1,-1,-1,-1,-1,-1,-1,-1,-1,-1,-1,-1,-1,-1,-1,-1,-1,-1,-1,-1,-1,-1,-1,-1],"split_conditions":[4E2,1E0,2.5881904E-1,-8.07959E-1,2.5881904E-1,-7.0710677E-1,1.5E3,-7.0710677E-1,-7.0710677E-1,2.5881904E-1,4E0,1E0,2E0,-9.813011E-1,2.5881904E-1,-8.660254E-1,5E0,1.5E3,4E0,1E0,9.9962884E-1,1E0,1E0,5E0,3E0,1.2E1,-1.0618876E0,2.7199173E-2,1E0,2E0,-1.4038315E-1,1E0,1E0,1E0,1.6488041E0,1.3879414E0,5.5E2,5.5E2,8.170174E-1,4E0,4E0,1.6E1,1E0,1E1,2.1227132E-1,-5.486298E-3,-5.5825807E-2,6.7540936E-2,-1.0596313E-1,3.132553E-2,-2.2745629E-1,1.9611359E-2,-5.78961E-1,-3.4370422E-3,1.444317E-1,1.720147E0,-3.74012E-3,7.466602E-2,-5.6362536E-2,-7.7764705E-2,-1.798668E-2,-8.247061E-1,-2.0991364E-1,-2.1240596E-1,4.1486454E-1,1.9130974E-1,-2.3150636E-2,7.556648E-1,1.9768982E-1,-4.306793E-3,1.9355355E-1],"split_indices":[5,7,0,0,1,0,5,0,0,1,3,3,2,0,0,0,4,5,3,3,0,7,7,3,2,4,0,0,2,2,0,3,4,3,0,0,5,5,0,3,3,4,4,4,0,0,0,0,0,0,0,0,0,0,0,0,0,0,0,0,0,0,0,0,0,0,0,0,0,0,0],"split_type":[0,0,0,0,0,0,0,0,0,0,0,0,0,0,0,0,0,0,0,0,0,0,0,0,0,0,0,0,0,0,0,0,0,0,0,0,0,0,0,0,0,0,0,0,0,0,0,0,0,0,0,0,0,0,0,0,0,0,0,0,0,0,0,0,0,0,0,0,0,0,0],"sum_hessian":[3.988E3,1.023E3,2.965E3,9.39E2,8.4E1,2.473E3,4.92E2,5.3E1,3.1E1,1.128E3,1.345E3,4.06E2,8.6E1,2.5E1,2.8E1,1.3E1,1.8E1,6.94E2,4.34E2,8.26E2,5.19E2,1.18E2,2.88E2,7E1,1.6E1,2E1,8E0,8E0,5E0,9E0,9E0,5.72E2,1.22E2,2.41E2,1.93E2,3.41E2,4.85E2,1.03E2,1.5E1,2.48E2,4E1,3.6E1,3.4E1,1.2E1,4E0,1.5E1,5E0,2E0,3E0,7E0,2E0,1.81E2,3.91E2,9E0,1.13E2,9.3E1,1.48E2,2.58E2,2.27E2,2.8E1,7.5E1,1.5E2,9.8E1,2.6E1,1.4E1,3.5E1,1E0,2E0,3.2E1,7E0,5E0],"tree_param":{"num_deleted":"0","num_feature":"8","num_nodes":"71","size_leaf_vector":"1"}},{"base_weights":[-4.9135122E-2,-9.560547E-1,2.6399192E-1,-9.989362E-2,-4.7058824E-1,3.8439775E-1,-3.4077078E-1,-7.222222E-1,-3.125E-2,4.25155E-2,6.708767E-1,-5.3071254E-1,5.5172414E-1,-9.615385E-2,-4.827586E-1,6.4285713E-1,-5.263158E-1,-3.3381295E-1,6.436782E-1,4.6432889E-1,9.9807695E-2,-0E0,-7.474049E-1,6.197183E-1,2.3529412E-1,-2.857143E-1,-8.888889E-2,8.888889E-2,1.6666667E-1,-1E-1,-8.9999996E-2,-5.095986E-1,4.878049E-1,3.5950413E-1,9.948454E-2,9.97076E-2,8.8477366E-2,-1.4423077E-1,9.375E-2,-8.674699E-1,-0E0,7.567568E-1,4.5714286E-1,7.5E-2,7.1428575E-2,-6.25E-3,-8.3333336E-2,6.666667E-2,-2.5E-2,1.25E-2,-6.666667E-2,1.0439561E-2,-7.933673E-2,-1.0000001E-2,5.350877E-2,9.893617E-2,-4.0268456E-3,3.8610037E-2,-2.5E-2,-3.448276E-2,-6.578948E-3,-9.933775E-2,-6.666667E-2,-5.185185E-2,9.3333334E-2,8.055556E-2,-5E-2,3.2E-2,7.272728E-2,-3.75E-2,5.714286E-2],"categories":[],"categories_nodes":[],"categories_segments":[],"categories_sizes":[],"default_left":[0,0,0,0,0,0,0,0,0,0,0,0,0,0,0,0,0,0,0,0,0,0,0,0,0,0,0,0,0,0,0,0,0,0,0,0,0,0,0,0,0,0,0,0,0,0,0,0,0,0,0,0,0,0,0,0,0,0,0,0,0,0,0,0,0,0,0,0,0,0,0],"id":5,"left_children":[1,3,5,-1,7,9,11,13,15,17,19,21,23,-1,25,27,29,31,33,35,-1,37,39,41,43,45,-1,-1,47,49,-1,51,53,55,-1,-1,57,59,-1,61,63,65,67,-1,69,-1,-1,-1,-1,-1,-1,-1,-1,-1,-1,-1,-1,-1,-1,-1,-1,-1,-1,-1,-1,-1,-1,-1,-1,-1,-1],"loss_changes":[1.1330527E3,2.0847046E1,2.1610608E2,0E0,9.374386E0,2.4228015E2,8.386717E1,2.6304169E0,1.1017622E1,2.5563376E2,9.0502625E1,4.680555E1,1.7260227E0,0E0,2.0667758E0,1.4920635E0,2.936843E0,1.0062649E2,4.3052124E1,1.6550517E2,0E0,1.6225962E1,2.5934036E1,1.2358704E0,1.3802521E0,2.5148807E0,0E0,0E0,1.4166667E0,1.3583333E0,0E0,9.991797E1,3.4720554E0,6.0975384E1,0E0,0E0,4.905551E1,1.6137617E0,0E0,5.633133E0,2.0325926E1,2.6719208E0,1.0638957E0,0E0,3.3392859E0,0E0,0E0,0E0,0E0,0E0,0E0,0E0,0E0,0E0,0E0,0E0,0E0,0E0,0E0,0E0,0E0,0E0,0E0,0E0,0E0,0E0,0E0,0E0,0E0,0E0,0E0],"parents":[2147483647,0,0,1,1,2,2,4,4,5,5,6,6,7,7,8,8,9,9,10,10,11,11,12,12,14,14,15,15,16,16,17,17,18,18,19,19,21,21,22,22,23,23,24,24,25,25,28,28,29,29,31,31,32,32,33,33,36,36,37,37,39,39,40,40,41,41,42,42,44,44],"right_children":[2,4,6,-1,8,10,12,14,16,18,20,22,24,-1,26,28,30,32,34,36,-1,38,40,42,44,46,-1,-1,48,50,-1,52,54,56,-1,-1,58,60,-1,62,64,66,68,-1,70,-1,-1,-1,-1,-1,-1,-1,-1,-1,-1,-1,-1,-1,-1,-1,-1,-1,-1,-1,-1,-1,-1,-1,-1,-1,-1],"split_conditions":[4E2,1E0,2.5881904E-1,-7.2716314E-1,2.5881904E-1,-7.0710677E-1,1.5E3,-7.0710677E-1,-7.0710677E-1,2.5881904E-1,4E0,1E0,2E0,-8.831711E-1,2.5881904E-1,-8.660254E-1,5E0,1.5E3,4E0,1E0,8.9966583E-1,1E0,1E0,5E0,4E0,1.2E1,-9.5569897E-1,2.4479294E-2,1E0,2E0,-1.2634468E-1,1E0,1E0,1E0,1.4839238E0,1.2491474E0,5.5E2,5.5E2,7.3531574E-1,4E0,4E0,1.6E1,1.2E1,1.2823677E-1,1E1,-4.9377442E-3,-5.0243378E-2,6.078701E-2,-9.536667E-2,2.8192902E-2,-2.0471077E-1,1.7650222E-2,-5.2106494E-1,-3.093338E-3,1.2998848E-1,1.5481323E0,-3.3662796E-3,6.719952E-2,-5.072632E-2,-6.9988064E-2,-1.618805E-2,-7.4223536E-1,-1.8892212E-1,-1.9116536E-1,3.733782E-1,1.7217866E-1,-2.0835495E-2,1.9751815E-1,1.5165253E-1,-1.5019226E-2,2.6615658E-1],"split_indices":[5,7,0,0,1,0,5,0,0,1,3,3,2,0,0,0,4,5,3,3,0,7,7,3,4,4,0,0,2,2,0,3,4,3,0,0,5,5,0,3,3,4,4,0,4,0,0,0,0,0,0,0,0,0,0,0,0,0,0,0,0,0,0,0,0,0,0,0,0,0,0],"split_type":[0,0,0,0,0,0,0,0,0,0,0,0,0,0,0,0,0,0,0,0,0,0,0,0,0,0,0,0,0,0,0,0,0,0,0,0,0,0,0,0,0,0,0,0,0,0,0,0,0,0,0,0,0,0,0,0,0,0,0,0,0,0,0,0,0,0,0,0,0,0,0],"sum_hessian":[3.988E3,1.023E3,2.965E3,9.39E2,8.4E1,2.473E3,4.92E2,5.3E1,3.1E1,1.128E3,1.345E3,4.06E2,8.6E1,2.5E1,2.8E1,1.3E1,1.8E1,6.94E2,4.34E2,8.26E2,5.19E2,1.18E2,2.88E2,7E1,1.6E1,2E1,8E0,8E0,5E0,9E0,9E0,5.72E2,1.22E2,2.41E2,1.93E2,3.41E2,4.85E2,1.03E2,1.5E1,2.48E2,4E1,3.6E1,3.4E1,3E0,1.3E1,1.5E1,5E0,2E0,3E0,7E0,2E0,1.81E2,3.91E2,9E0,1.13E2,9.3E1,1.48E2,2.58E2,2.27E2,2.8E1,7.5E1,1.5E2,9.8E1,2.6E1,1.4E1,3.5E1,1E0,2.4E1,1E1,7E0,6E0],"tree_param":{"num_deleted":"0","num_feature":"8","num_nodes":"71","size_leaf_vector":"1"}},{"base_weights":[-5.0137877E-2,-9.580078E-1,2.6331758E-1,-9.989362E-2,-4.9411765E-1,3.8520613E-1,-3.4888437E-1,-7.222222E-1,-9.375E-2,5.1372897E-2,6.6493315E-1,-5.208845E-1,4.597701E-1,-9.615385E-2,-4.827586E-1,3.5714287E-1,-4.2105263E-1,-3.1654677E-1,6.3908046E-1,4.5465538E-1,9.9807695E-2,-0E0,-7.33564E-1,5.3521127E-1,1.1764706E-1,-2.857143E-1,-8.888889E-2,7E-1,-4E-1,2.5E-1,-5.625E-1,-4.7469458E-1,4.2276424E-1,3.5950413E-1,9.845361E-2,9.97076E-2,7.201646E-2,-1.4423077E-1,9.375E-2,-8.514056E-1,-0E0,6.486486E-1,4E-1,7.5E-2,-7.1428575E-2,-6.25E-3,-8.3333336E-2,2.5E-2,8.571429E-2,-7.5E-2,5E-2,-0E0,5E-2,-8.75E-2,-2.2222223E-2,9.34066E-3,-7.372449E-2,3.6036037E-2,9.2307694E-2,9.893617E-2,-4.0268456E-3,3.3976834E-2,-2.3245616E-2,-3.448276E-2,-6.578948E-3,-9.933775E-2,-6.2626265E-2,-5.185185E-2,9.3333334E-2,6.944444E-2,-5E-2,6.111111E-2,1.6666668E-2,-2.5E-2,6.666667E-2],"categories":[],"categories_nodes":[],"categories_segments":[],"categories_sizes":[],"default_left":[0,0,0,0,0,0,0,0,0,0,0,0,0,0,0,0,0,0,0,0,0,0,0,0,0,0,0,0,0,0,0,0,0,0,0,0,0,0,0,0,0,0,0,0,0,0,0,0,0,0,0,0,0,0,0,0,0,0,0,0,0,0,0,0,0,0,0,0,0,0,0,0,0,0,0],"id":6,"left_children":[1,3,5,-1,7,9,11,13,15,17,19,21,23,-1,25,27,29,31,33,35,-1,37,39,41,43,45,-1,47,49,51,53,55,57,59,-1,-1,61,63,-1,65,67,69,71,-1,73,-1,-1,-1,-1,-1,-1,-1,-1,-1,-1,-1,-1,-1,-1,-1,-1,-1,-1,-1,-1,-1,-1,-1,-1,-1,-1,-1,-1,-1,-1],"loss_changes":[1.1354291E3,1.8948303E1,2.2145851E2,0E0,7.694975E0,2.3099335E2,6.881021E1,2.6304169E0,4.872885E0,2.4432503E2,9.383722E1,4.5088043E1,2.182518E0,0E0,2.0667758E0,3.9142861E0,1.9440789E0,8.146037E1,4.1658875E1,1.7157307E2,0E0,1.6225962E1,2.4982422E1,8.2954025E-1,2.0861344E0,2.5148807E0,0E0,4.9285698E-1,1.95E0,2.5E-1,1.5069447E0,8.553476E1,3.507597E0,6.0975384E1,0E0,0E0,3.969921E1,1.6137617E0,0E0,7.336914E0,2.0325926E1,2.2935429E0,1.6222224E0,0E0,2.011905E0,0E0,0E0,0E0,0E0,0E0,0E0,0E0,0E0,0E0,0E0,0E0,0E0,0E0,0E0,0E0,0E0,0E0,0E0,0E0,0E0,0E0,0E0,0E0,0E0,0E0,0E0,0E0,0E0,0E0,0E0],"parents":[2147483647,0,0,1,1,2,2,4,4,5,5,6,6,7,7,8,8,9,9,10,10,11,11,12,12,14,14,15,15,16,16,17,17,18,18,19,19,21,21,22,22,23,23,24,24,25,25,27,27,28,28,29,29,30,30,31,31,32,32,33,33,36,36,37,37,39,39,40,40,41,41,42,42,44,44],"right_children":[2,4,6,-1,8,10,12,14,16,18,20,22,24,-1,26,28,30,32,34,36,-1,38,40,42,44,46,-1,48,50,52,54,56,58,60,-1,-1,62,64,-1,66,68,70,72,-1,74,-1,-1,-1,-1,-1,-1,-1,-1,-1,-1,-1,-1,-1,-1,-1,-1,-1,-1,-1,-1,-1,-1,-1,-1,-1,-1,-1,-1,-1,-1],"split_conditions":[4E2,1E0,2.5881904E-1,-6.544468E-1,2.5881904E-1,-7.0710677E-1,1.5E3,-7.0710677E-1,-7.0710677E-1,2.5881904E-1,4E0,1E0,2E0,-7.94854E-1,2.5881904E-1,1E0,2E0,1.5E3,4E0,1E0,8.0969924E-1,1E0,1E0,5E0,4E0,1.2E1,-8.60129E-1,5E0,3E0,-5E-1,1E0,1E0,1E0,1E0,1.3355312E0,1.1242329E0,5.5E2,5.5E2,6.61784E-1,4E0,4E0,1.6E1,9E0,1.15412906E-1,1E0,-4.4441223E-3,-4.521904E-2,9.129715E-3,4.0695E-2,-1.1150361E-3,4.9354173E-2,-8.2915306E-2,6.535759E-2,-1.1464729E-1,-4.9491312E-2,1.5885163E-2,-4.6895847E-1,7.9565816E-2,1.5897677E0,1.393319E0,-3.0298233E-3,6.0479548E-2,-4.5653533E-2,-6.2989235E-2,-1.4569092E-2,-6.6801184E-1,-1.7002983E-1,-1.7204876E-1,3.3604032E-1,1.5496063E-1,-1.8751908E-2,1.957409E-1,1.03191376E-1,-7.0007327E-3,1.6676081E0],"split_indices":[5,7,0,0,1,0,5,0,0,1,3,3,2,0,0,6,4,5,3,3,0,7,7,3,4,4,0,4,2,0,2,3,7,3,0,0,5,5,0,3,3,4,4,0,7,0,0,0,0,0,0,0,0,0,0,0,0,0,0,0,0,0,0,0,0,0,0,0,0,0,0,0,0,0,0],"split_type":[0,0,0,0,0,0,0,0,0,0,0,0,0,0,0,0,0,0,0,0,0,0,0,0,0,0,0,0,0,0,0,0,0,0,0,0,0,0,0,0,0,0,0,0,0,0,0,0,0,0,0,0,0,0,0,0,0,0,0,0,0,0,0,0,0,0,0,0,0,0,0,0,0,0,0],"sum_hessian":[3.988E3,1.023E3,2.965E3,9.39E2,8.4E1,2.473E3,4.92E2,5.3E1,3.1E1,1.128E3,1.345E3,4.06E2,8.6E1,2.5E1,2.8E1,1.3E1,1.8E1,6.94E2,4.34E2,8.26E2,5.19E2,1.18E2,2.88E2,7E1,1.6E1,2E1,8E0,9E0,4E0,3E0,1.5E1,5.72E2,1.22E2,2.41E2,1.93E2,3.41E2,4.85E2,1.03E2,1.5E1,2.48E2,4E1,3.6E1,3.4E1,3E0,1.3E1,1.5E1,5E0,3E0,6E0,3E0,1E0,2E0,1E0,7E0,8E0,1.81E2,3.91E2,1.1E2,1.2E1,9.3E1,1.48E2,2.58E2,2.27E2,2.8E1,7.5E1,1.5E2,9.8E1,2.6E1,1.4E1,3.5E1,1E0,1.7E1,1.7E1,1.1E1,2E0],"tree_param":{"num_deleted":"0","num_feature":"8","num_nodes":"75","size_leaf_vector":"1"}},{"base_weights":[-4.662823E-2,-8.214838E-1,3.2529673E-1,-3.1734318E-1,-9.5410156E-1,4.5133927E-1,-2.9321662E-1,-7.0408165E-1,-9.770115E-2,-9.946808E-2,-4.9411765E-1,1.4050388E-1,7.1629447E-1,-4.690027E-1,4.597701E-1,-9.5E-1,-3.0769232E-1,1.3768116E-1,-9.72973E-2,-7.222222E-1,-9.375E-2,-2.1855345E-1,7.1536523E-1,5.057971E-1,9.942307E-2,-6.03125E-1,3.653846E-1,5.3521127E-1,1.1764706E-1,-9.818182E-2,-5E-1,-1.25E-1,-5.625E-1,4.8E-2,9.2857145E-2,-9.615385E-2,-4.827586E-1,3.5714287E-1,-4.2105263E-1,-3.3040422E-1,7.205882E-1,4.852941E-1,9.536083E-2,9.97076E-2,2.2922637E-2,-1.4423077E-1,-8.202765E-1,9.5454544E-2,-6.451613E-2,6.486486E-1,4E-1,7.5E-2,-7.1428575E-2,-8.0000006E-2,5E-2,3.0000001E-2,-4.0000003E-2,-8.9999996E-2,-0E0,6.6115703E-3,-4.0000003E-2,-2.857143E-2,-8.888889E-2,7E-2,-4.0000003E-2,2.5E-2,-5.6250002E-2,-4.8801746E-2,3.2432433E-2,5.1282056E-2,9.6666664E-2,9.893617E-2,5.4054055E-3,4.6721313E-2,-2.1491228E-2,-3.448276E-2,-6.578948E-3,-9.9159665E-2,-6.0606062E-2,-5E-2,8.9999996E-2,6.944444E-2,-5E-2,6.111111E-2,1.6666668E-2,-2.5E-2,6.666667E-2],"categories":[],"categories_nodes":[],"categories_segments":[],"categories_sizes":[],"default_left":[0,0,0,0,0,0,0,0,0,0,0,0,0,0,0,0,0,0,0,0,0,0,0,0,0,0,0,0,0,0,0,0,0,0,0,0,0,0,0,0,0,0,0,0,0,0,0,0,0,0,0,0,0,0,0,0,0,0,0,0,0,0,0,0,0,0,0,0,0,0,0,0,0,0,0,0,0,0,0,0,0,0,0,0,0,0,0],"id":7,"left_children":[1,3,5,7,9,11,13,15,17,-1,19,21,23,25,27,29,31,33,-1,35,37,39,41,43,-1,45,47,49,51,-1,53,55,57,59,-1,-1,61,63,65,67,69,71,-1,-1,73,75,77,-1,79,81,83,-1,85,-1,-1,-1,-1,-1,-1,-1,-1,-1,-1,-1,-1,-1,-1,-1,-1,-1,-1,-1,-1,-1,-1,-1,-1,-1,-1,-1,-1,-1,-1,-1,-1,-1,-1],"loss_changes":[1.1498496E3,8.621149E1,2.1030978E2,2.295104E1,1.8622314E1,1.8438E2,6.070624E1,9.2606735E0,3.5982048E1,0E0,7.694975E0,2.131696E2,7.022955E1,4.173896E1,2.182518E0,3.6817932E-1,1.7451923E0,9.743486E0,0E0,2.6304169E0,4.872885E0,6.704589E1,2.1297913E1,1.6366312E2,0E0,3.1769562E1,1.3232179E1,8.2954025E-1,2.0861344E0,0E0,2.2E0,2.9250002E0,3.0375004E0,1.0409256E0,0E0,0E0,2.0667758E0,3.9142861E0,1.9440789E0,5.8875584E1,2.980919E0,4.4290844E1,0E0,0E0,3.697847E1,1.6137617E0,7.3628235E0,0E0,1.3470968E1,2.2935429E0,1.6222224E0,0E0,2.011905E0,0E0,0E0,0E0,0E0,0E0,0E0,0E0,0E0,0E0,0E0,0E0,0E0,0E0,0E0,0E0,0E0,0E0,0E0,0E0,0E0,0E0,0E0,0E0,0E0,0E0,0E0,0E0,0E0,0E0,0E0,0E0,0E0,0E0,0E0],"parents":[2147483647,0,0,1,1,2,2,3,3,4,4,5,5,6,6,7,7,8,8,10,10,11,11,12,12,13,13,14,14,15,15,16,16,17,17,19,19,20,20,21,21,22,22,23,23,25,25,26,26,27,27,28,28,30,30,31,31,32,32,33,33,36,36,37,37,38,38,39,39,40,40,41,41,44,44,45,45,46,46,48,48,49,49,50,50,52,52],"right_children":[2,4,6,8,10,12,14,16,18,-1,20,22,24,26,28,30,32,34,-1,36,38,40,42,44,-1,46,48,50,52,-1,54,56,58,60,-1,-1,62,64,66,68,70,72,-1,-1,74,76,78,-1,80,82,84,-1,86,-1,-1,-1,-1,-1,-1,-1,-1,-1,-1,-1,-1,-1,-1,-1,-1,-1,-1,-1,-1,-1,-1,-1,-1,-1,-1,-1,-1,-1,-1,-1,-1,-1,-1],"split_conditions":[4.5E2,4E0,2.5881904E-1,-7.0710677E-1,1E0,-7.0710677E-1,1.5E3,2.5881904E-1,2.5881904E-1,-5.890021E-1,2.5881904E-1,2.5881904E-1,4E0,1E0,2E0,1.6E1,1E0,1E0,-6.1401856E-1,-7.0710677E-1,-7.0710677E-1,1E0,4E0,1E0,7.2872925E-1,1E0,6E2,5E0,4E0,-7.772932E-1,1E0,8E0,9E0,3E0,1.1632519E0,-7.153687E-1,2.5881904E-1,1E0,2E0,1.5E3,4E0,1E0,1.201978E0,1.0118096E0,5.5E2,5.5E2,4E0,4.6944544E-1,4E0,1.6E1,9E0,1.0387154E-1,1E0,-7.4242777E-1,2.8253403E-1,8.946228E-2,-4.1527558E-2,-7.9437636E-2,2.600403E-2,1.1074829E-2,-2.3027802E-2,-1.4121818E-2,-7.7411616E-1,3.2906342E-2,-5.031586E-4,3.3665087E-2,-6.1649706E-2,-1.5837574E-1,7.160912E-2,3.0202064E-1,1.1098012E0,1.2539872E0,2.1208955E-2,1.0328942E-1,-4.1088104E-2,-5.6690406E-2,-1.3112259E-2,-5.8940107E-1,-1.5302697E-1,-1.5367432E-1,2.5799638E-1,1.3946457E-1,-1.6876603E-2,1.7616692E-1,9.287224E-2,-6.3007358E-3,1.5008475E0],"split_indices":[5,3,0,0,7,0,5,1,0,0,1,1,3,7,2,4,2,7,0,0,0,7,3,3,0,3,5,3,4,0,6,4,4,2,0,0,0,6,4,5,3,3,0,0,5,5,3,0,3,4,4,0,7,0,0,0,0,0,0,0,0,0,0,0,0,0,0,0,0,0,0,0,0,0,0,0,0,0,0,0,0,0,0,0,0,0,0],"split_type":[0,0,0,0,0,0,0,0,0,0,0,0,0,0,0,0,0,0,0,0,0,0,0,0,0,0,0,0,0,0,0,0,0,0,0,0,0,0,0,0,0,0,0,0,0,0,0,0,0,0,0,0,0,0,0,0,0,0,0,0,0,0,0,0,0,0,0,0,0,0,0,0,0,0,0,0,0,0,0,0,0,0,0,0,0,0,0],"sum_hessian":[3.988E3,1.293E3,2.695E3,2.7E2,1.023E3,2.239E3,4.56E2,9.7E1,1.73E2,9.39E2,8.4E1,1.031E3,1.208E3,3.7E2,8.6E1,5.9E1,3.8E1,1.37E2,3.6E1,5.3E1,3.1E1,6.35E2,3.96E2,6.89E2,5.19E2,3.19E2,5.1E1,7E1,1.6E1,5.4E1,5E0,2.3E1,1.5E1,1.24E2,1.3E1,2.5E1,2.8E1,1.3E1,1.8E1,5.68E2,6.7E1,2.03E2,1.93E2,3.41E2,3.48E2,1.03E2,2.16E2,2.1E1,3E1,3.6E1,3.4E1,3E0,1.3E1,4E0,1E0,9E0,1.4E1,9E0,6E0,1.2E2,4E0,2E1,8E0,9E0,4E0,3E0,1.5E1,4.58E2,1.1E2,3.8E1,2.9E1,9.3E1,1.1E2,1.21E2,2.27E2,2.8E1,7.5E1,1.18E2,9.8E1,2.1E1,9E0,3.5E1,1E0,1.7E1,1.7E1,1.1E1,2E0],"tree_param":{"num_deleted":"0","num_feature":"8","num_nodes":"87","size_leaf_vector":"1"}},{"base_weights":[-5.414891E-2,-8.1684697E-1,3.1194362E-1,-3.0258304E-1,-9.5214844E-1,4.3526787E-1,-2.9321662E-1,-1.9574468E-1,-9.72973E-2,-9.946808E-2,-4.7058824E-1,1.1143411E-1,7.1133167E-1,-4.5822102E-1,4.1379312E-1,-6.4285713E-1,1.23188406E-1,-7.222222E-1,-3.125E-2,-2.154088E-1,6.347607E-1,5E-1,9.903847E-2,-5.90625E-1,3.653846E-1,3.4615386E-1,8.9999996E-2,-9.5E-1,-1.5384616E-1,3.2E-2,9.2857145E-2,-9.615385E-2,-4.827586E-1,2.777778E-1,-4E-1,-3.1985942E-1,6.617647E-1,5.1666665E-1,9.897959E-2,9.97076E-2,1.14613185E-2,-1.4423077E-1,-8.0184335E-1,9.5454544E-2,-6.451613E-2,4.21875E-1,-0E0,-9.818182E-2,-5E-2,-1.8421052E-2,5E-2,4.9586776E-3,-4.0000003E-2,-2.857143E-2,-8.888889E-2,5E-2,-4.0000003E-2,-6.1538465E-2,6.666667E-2,-4.5315903E-2,2.3423424E-2,4.1025642E-2,9.6666664E-2,9.893617E-2,2.9951692E-2,4.0163934E-2,-1.9736843E-2,-3.448276E-2,-6.578948E-3,-9.9159665E-2,-5.6565654E-2,-5E-2,8.9999996E-2,5.714286E-2,2.3333333E-2,7.5E-2,-2.5E-2],"categories":[],"categories_nodes":[],"categories_segments":[],"categories_sizes":[],"default_left":[0,0,0,0,0,0,0,0,0,0,0,0,0,0,0,0,0,0,0,0,0,0,0,0,0,0,0,0,0,0,0,0,0,0,0,0,0,0,0,0,0,0,0,0,0,0,0,0,0,0,0,0,0,0,0,0,0,0,0,0,0,0,0,0,0,0,0,0,0,0,0,0,0,0,0,0,0],"id":8,"left_children":[1,3,5,7,9,11,13,15,-1,-1,17,19,21,23,25,27,29,31,33,35,37,39,-1,41,43,45,-1,47,49,51,-1,-1,53,55,57,59,61,63,-1,-1,65,67,69,-1,71,73,75,-1,-1,-1,-1,-1,-1,-1,-1,-1,-1,-1,-1,-1,-1,-1,-1,-1,-1,-1,-1,-1,-1,-1,-1,-1,-1,-1,-1,-1,-1],"loss_changes":[1.1140557E3,8.974927E1,2.0133261E2,1.9219473E1,2.0505432E1,2.0017401E2,5.35031E1,3.358995E1,0E0,0E0,9.374386E0,1.7665578E2,7.080286E1,4.067286E1,2.5496035E0,1.4573078E1,1.0105226E1,2.6304169E0,3.757639E0,5.8482815E1,1.6133835E1,1.6754877E2,0E0,3.0056076E1,1.3232179E1,2.0444708E0,0E0,3.6817932E-1,8.663967E-1,9.695207E-1,0E0,0E0,2.0667758E0,2.9111114E0,3.8564105E0,4.2132755E1,4.8180237E0,3.0497345E1,0E0,0E0,2.8516064E1,1.6137617E0,9.164429E0,0E0,1.3470968E1,1.6712799E0,3E0,0E0,0E0,0E0,0E0,0E0,0E0,0E0,0E0,0E0,0E0,0E0,0E0,0E0,0E0,0E0,0E0,0E0,0E0,0E0,0E0,0E0,0E0,0E0,0E0,0E0,0E0,0E0,0E0,0E0,0E0],"parents":[2147483647,0,0,1,1,2,2,3,3,4,4,5,5,6,6,7,7,10,10,11,11,12,12,13,13,14,14,15,15,16,16,17,17,18,18,19,19,20,20,21,21,23,23,24,24,25,25,27,27,28,28,29,29,32,32,33,33,34,34,35,35,36,36,37,37,40,40,41,41,42,42,44,44,45,45,46,46],"right_children":[2,4,6,8,10,12,14,16,-1,-1,18,20,22,24,26,28,30,32,34,36,38,40,-1,42,44,46,-1,48,50,52,-1,-1,54,56,58,60,62,64,-1,-1,66,68,70,-1,72,74,76,-1,-1,-1,-1,-1,-1,-1,-1,-1,-1,-1,-1,-1,-1,-1,-1,-1,-1,-1,-1,-1,-1,-1,-1,-1,-1,-1,-1,-1,-1],"split_conditions":[4.5E2,4E0,2.5881904E-1,2.5881904E-1,1E0,-7.0710677E-1,1.5E3,-7.0710677E-1,-5.526166E-1,-5.301018E-1,2.5881904E-1,2.5881904E-1,4E0,1E0,1E0,2.5881904E-1,1E0,-7.0710677E-1,8E0,1E0,1.5E3,1E0,6.558563E-1,1E0,6E2,2E0,1.5886173E0,1.6E1,4E0,3E0,1.0469265E0,-6.4383185E-1,2.5881904E-1,2E0,2E0,1.5E3,4E0,1E0,1.2461208E0,9.106285E-1,5.5E2,5.5E2,4E0,4.22501E-1,4E0,5E0,4E0,-6.995638E-1,-6.493618E-1,-4.225693E-2,6.912384E-2,9.967423E-3,-2.0724868E-2,-1.2709618E-2,-6.967045E-1,3.0298615E-2,-4.2179298E-2,-7.5782776E-2,2.4043465E-2,-1.4253826E-1,6.444817E-2,2.7181855E-1,9.988209E-1,1.1285886E0,9.3410306E-2,9.296036E-2,-3.6979295E-2,-5.1021386E-2,-1.1801148E-2,-5.3046095E-1,-1.3772431E-1,-1.3830681E-1,2.3219681E-1,9.957123E-2,8.358498E-2,9.34845E-2,-5.6705475E-3],"split_indices":[5,3,0,0,7,0,5,0,0,0,1,1,3,7,7,1,7,0,4,7,5,3,0,3,5,2,0,4,2,2,0,0,0,2,2,5,3,3,0,0,5,5,3,0,3,3,4,0,0,0,0,0,0,0,0,0,0,0,0,0,0,0,0,0,0,0,0,0,0,0,0,0,0,0,0,0,0],"split_type":[0,0,0,0,0,0,0,0,0,0,0,0,0,0,0,0,0,0,0,0,0,0,0,0,0,0,0,0,0,0,0,0,0,0,0,0,0,0,0,0,0,0,0,0,0,0,0,0,0,0,0,0,0,0,0,0,0,0,0,0,0,0,0,0,0,0,0,0,0,0,0,0,0,0,0,0,0],"sum_hessian":[3.988E3,1.293E3,2.695E3,2.7E2,1.023E3,2.239E3,4.56E2,2.34E2,3.6E1,9.39E2,8.4E1,1.031E3,1.208E3,3.7E2,8.6E1,9.7E1,1.37E2,5.3E1,3.1E1,6.35E2,3.96E2,6.89E2,5.19E2,3.19E2,5.1E1,7.7E1,9E0,5.9E1,3.8E1,1.24E2,1.3E1,2.5E1,2.8E1,1.7E1,1.4E1,5.68E2,6.7E1,2.99E2,9.7E1,3.41E2,3.48E2,1.03E2,2.16E2,2.1E1,3E1,6.3E1,1.4E1,5.4E1,5E0,3.7E1,1E0,1.2E2,4E0,2E1,8E0,1.3E1,4E0,1.2E1,2E0,4.58E2,1.1E2,3.8E1,2.9E1,9.3E1,2.06E2,1.21E2,2.27E2,2.8E1,7.5E1,1.18E2,9.8E1,2.1E1,9E0,3.4E1,2.9E1,3E0,1.1E1],"tree_param":{"num_deleted":"0","num_feature":"8","num_nodes":"77","size_leaf_vector":"1"}},{"base_weights":[-5.364753E-2,-8.0757344E-1,3.0823442E-1,-2.9520294E-1,-9.423828E-1,4.325893E-1,-3.0196938E-1,-1.8723404E-1,-9.72973E-2,-9.882979E-2,-4.2352942E-1,1.1143411E-1,7.063689E-1,-4.6361187E-1,3.908046E-1,-6.22449E-1,1.23188406E-1,-7.222222E-1,9.375E-2,-1.9654088E-1,6.0453403E-1,5.028986E-1,9.7500004E-2,1.6806724E-2,-6.8774706E-1,3.2051283E-1,8.9999996E-2,-9.166667E-1,-1.5384616E-1,3.2E-2,9.2857145E-2,-9.615385E-2,-4.827586E-1,8.888889E-2,-2.0833333E-1,-2.9525483E-1,6.3235295E-1,4.7666666E-1,9.897959E-2,9.97076E-2,1.7191976E-2,-1.25E-1,9.375E-2,-8.0184335E-1,-0E0,3.90625E-1,-0E0,-9.818182E-2,-1.6666668E-2,-1.8421052E-2,5E-2,4.9586776E-3,-4.0000003E-2,-2.857143E-2,-8.888889E-2,1.5384616E-2,-5.8333334E-2,1.0778443E-2,-4.6153847E-2,3.5897437E-2,9.6666664E-2,9.893617E-2,2.415459E-2,-6.1919503E-3,9.62963E-2,-3.448276E-2,-3.9473684E-3,-9.9159665E-2,-5.6565654E-2,-6.0869563E-2,9.3333334E-2,5.1428575E-2,2.3333333E-2,7.5E-2,-2.5E-2],"categories":[],"categories_nodes":[],"categories_segments":[],"categories_sizes":[],"default_left":[0,0,0,0,0,0,0,0,0,0,0,0,0,0,0,0,0,0,0,0,0,0,0,0,0,0,0,0,0,0,0,0,0,0,0,0,0,0,0,0,0,0,0,0,0,0,0,0,0,0,0,0,0,0,0,0,0,0,0,0,0,0,0,0,0,0,0,0,0,0,0,0,0,0,0],"id":9,"left_children":[1,3,5,7,9,11,13,15,-1,-1,17,19,21,23,25,27,29,31,33,35,37,39,-1,41,43,45,-1,47,49,51,-1,-1,53,-1,55,57,59,61,-1,-1,63,65,-1,67,69,71,73,-1,-1,-1,-1,-1,-1,-1,-1,-1,-1,-1,-1,-1,-1,-1,-1,-1,-1,-1,-1,-1,-1,-1,-1,-1,-1,-1,-1],"loss_changes":[1.0885764E3,8.910138E1,2.0470801E2,1.9649088E1,2.397638E1,1.9687494E2,5.1356823E1,3.1825294E1,0E0,0E0,1.3200857E1,1.5684085E2,6.55918E1,3.9960358E1,2.8254633E0,1.33703575E1,1.0105226E1,2.6304169E0,7.8715277E0,5.222638E1,1.9085358E1,1.6560028E2,0E0,1.5653887E1,1.9852753E1,1.7528048E0,0E0,2.7681808E0,8.663967E-1,9.695207E-1,0E0,0E0,2.0667758E0,0E0,3.3493595E0,3.8183456E1,5.867798E0,3.59246E1,0E0,0E0,2.6172276E1,1.9416969E0,0E0,9.164429E0,2.1588406E1,1.1248512E0,3E0,0E0,0E0,0E0,0E0,0E0,0E0,0E0,0E0,0E0,0E0,0E0,0E0,0E0,0E0,0E0,0E0,0E0,0E0,0E0,0E0,0E0,0E0,0E0,0E0,0E0,0E0,0E0,0E0],"parents":[2147483647,0,0,1,1,2,2,3,3,4,4,5,5,6,6,7,7,10,10,11,11,12,12,13,13,14,14,15,15,16,16,17,17,18,18,19,19,20,20,21,21,23,23,24,24,25,25,27,27,28,28,29,29,32,32,34,34,35,35,36,36,37,37,40,40,41,41,43,43,44,44,45,45,46,46],"right_children":[2,4,6,8,10,12,14,16,-1,-1,18,20,22,24,26,28,30,32,34,36,38,40,-1,42,44,46,-1,48,50,52,-1,-1,54,-1,56,58,60,62,-1,-1,64,66,-1,68,70,72,74,-1,-1,-1,-1,-1,-1,-1,-1,-1,-1,-1,-1,-1,-1,-1,-1,-1,-1,-1,-1,-1,-1,-1,-1,-1,-1,-1,-1],"split_conditions":[4.5E2,4E0,2.5881904E-1,2.5881904E-1,1E0,-7.0710677E-1,1.5E3,-7.0710677E-1,-4.9735498E-1,-4.770916E-1,2.5881904E-1,2.5881904E-1,4E0,1E0,1E0,2.5881904E-1,1E0,-7.0710677E-1,-8.660254E-1,1E0,1.5E3,1E0,5.9027064E-1,1E0,1E0,2E0,1.4297558E0,1E0,4E0,3E0,9.422337E-1,-5.794487E-1,2.5881904E-1,1.7662812E-2,8E0,1E0,4E0,1E0,1.1215088E0,8.195656E-1,1E0,5.5E2,6.140804E-1,4E0,4E0,5E0,4E0,-6.3569605E-1,-2.3082733E-2,-3.8031388E-2,6.221161E-2,8.970642E-3,-1.8652344E-2,-1.1438561E-2,-6.27034E-1,9.5502855E-3,-8.8502504E-2,3.0187417E-2,-1.4425258E-1,2.4463654E-1,8.989388E-1,1.0157295E0,8.406925E-2,-9.683609E-3,1.4389542E0,-4.591923E-2,-1.062088E-2,-4.774149E-1,-1.23951726E-1,-1.1929512E-1,2.5341702E-1,8.961411E-2,7.52266E-2,8.41362E-2,-5.103302E-3],"split_indices":[5,3,0,0,7,0,5,0,0,0,1,1,3,3,7,1,7,0,0,7,5,3,0,7,7,2,0,7,2,2,0,0,0,0,4,3,3,3,0,0,7,5,0,3,3,3,4,0,0,0,0,0,0,0,0,0,0,0,0,0,0,0,0,0,0,0,0,0,0,0,0,0,0,0,0],"split_type":[0,0,0,0,0,0,0,0,0,0,0,0,0,0,0,0,0,0,0,0,0,0,0,0,0,0,0,0,0,0,0,0,0,0,0,0,0,0,0,0,0,0,0,0,0,0,0,0,0,0,0,0,0,0,0,0,0,0,0,0,0,0,0,0,0,0,0,0,0,0,0,0,0,0,0],"sum_hessian":[3.988E3,1.293E3,2.695E3,2.7E2,1.023E3,2.239E3,4.56E2,2.34E2,3.6E1,9.39E2,8.4E1,1.031E3,1.208E3,3.7E2,8.6E1,9.7E1,1.37E2,5.3E1,3.1E1,6.35E2,3.96E2,6.89E2,5.19E2,1.18E2,2.52E2,7.7E1,9E0,5.9E1,3.8E1,1.24E2,1.3E1,2.5E1,2.8E1,8E0,2.3E1,5.68E2,6.7E1,2.99E2,9.7E1,3.41E2,3.48E2,1.03E2,1.5E1,2.16E2,3.6E1,6.3E1,1.4E1,5.4E1,5E0,3.7E1,1E0,1.2E2,4E0,2E1,8E0,1.2E1,1.1E1,1.66E2,4.02E2,3.8E1,2.9E1,9.3E1,2.06E2,3.22E2,2.6E1,2.8E1,7.5E1,1.18E2,9.8E1,2.2E1,1.4E1,3.4E1,2.9E1,3E0,1.1E1],"tree_param":{"num_deleted":"0","num_feature":"8","num_nodes":"75","size_leaf_vector":"1"}},{"base_weights":[-4.512409E-2,-9.267578E-1,2.5927174E-1,-9.712766E-1,-4.2352942E-1,3.7631366E-1,-3.286004E-1,-8.382353E-1,-9.8052695E-2,-7.222222E-1,9.375E-2,5.8458813E-2,6.426449E-1,-4.8157248E-1,3.908046E-1,-8.6567163E-1,5E-2,-9.615385E-2,-4.827586E-1,8.888889E-2,-2.0833333E-1,-2.3597123E-1,5.2873564E-1,4.4256347E-1,9.596154E-1,1.6806724E-2,-6.851211E-1,3.2051283E-1,8.9999996E-2,-7.096774E-1,-9.72973E-2,-2.857143E-1,-8.888889E-2,1.5384616E-1,-5.833333E-1,-3.6998254E-1,3.902439E-1,3.9349112E-1,9.897959E-2,9.97076E-2,5.144033E-2,9.667969E-2,4.4444445E-1,-1.25E-1,9.375E-2,-8.032129E-1,4.8780486E-2,4.651163E-1,1.388889E-1,-1.6666668E-2,-8.076923E-2,-6.25E-3,-8.3333336E-2,5.714286E-2,-2.857143E-2,-8.9999996E-2,6.666667E-2,1.8131869E-2,-6.25E-2,3.2432433E-2,9.2307694E-2,9.893617E-2,1.632653E-2,-3.131991E-3,9.7500004E-2,-6.666667E-2,8.571429E-2,-3.448276E-2,-3.9473684E-3,-9.668874E-2,-5.454546E-2,-3.7037037E-2,8.0000006E-2,5E-2,-5E-2,-0E0,8.3333336E-2],"categories":[],"categories_nodes":[],"categories_segments":[],"categories_sizes":[],"default_left":[0,0,0,0,0,0,0,0,0,0,0,0,0,0,0,0,0,0,0,0,0,0,0,0,0,0,0,0,0,0,0,0,0,0,0,0,0,0,0,0,0,0,0,0,0,0,0,0,0,0,0,0,0,0,0,0,0,0,0,0,0,0,0,0,0,0,0,0,0,0,0,0,0,0,0,0,0],"id":10,"left_children":[1,3,5,7,9,11,13,15,-1,17,19,21,23,25,27,29,-1,-1,31,-1,33,35,37,39,41,43,45,47,-1,49,-1,51,-1,53,55,57,59,61,-1,-1,63,-1,65,67,-1,69,71,73,75,-1,-1,-1,-1,-1,-1,-1,-1,-1,-1,-1,-1,-1,-1,-1,-1,-1,-1,-1,-1,-1,-1,-1,-1,-1,-1,-1,-1],"loss_changes":[1.0707509E3,2.2529419E1,2.0420132E2,3.3496094E-1,1.3200857E1,2.0939807E2,5.4442295E1,2.9295425E0,0E0,2.6304169E0,7.8715277E0,1.564502E2,8.493848E1,4.1299385E1,2.8254633E0,4.3097687E-1,0E0,0E0,2.0667758E0,0E0,3.3493595E0,5.8468727E1,2.6735321E1,1.793107E2,1.4941406E0,1.5653887E1,2.5086151E1,1.9839497E0,0E0,1.5153008E0,0E0,2.5148807E0,0E0,2.5494506E0,5.35E0,8.067222E1,4.020891E0,4.6206924E1,0E0,0E0,3.7177475E1,0E0,4.698413E0,1.9416969E0,0E0,9.977539E0,1.3206143E1,1.6976748E0,3.472222E0,0E0,0E0,0E0,0E0,0E0,0E0,0E0,0E0,0E0,0E0,0E0,0E0,0E0,0E0,0E0,0E0,0E0,0E0,0E0,0E0,0E0,0E0,0E0,0E0,0E0,0E0,0E0,0E0],"parents":[2147483647,0,0,1,1,2,2,3,3,4,4,5,5,6,6,7,7,9,9,10,10,11,11,12,12,13,13,14,14,15,15,18,18,20,20,21,21,22,22,23,23,24,24,25,25,26,26,27,27,29,29,31,31,33,33,34,34,35,35,36,36,37,37,40,40,42,42,43,43,45,45,46,46,47,47,48,48],"right_children":[2,4,6,8,10,12,14,16,-1,18,20,22,24,26,28,30,-1,-1,32,-1,34,36,38,40,42,44,46,48,-1,50,-1,52,-1,54,56,58,60,62,-1,-1,64,-1,66,68,-1,70,72,74,76,-1,-1,-1,-1,-1,-1,-1,-1,-1,-1,-1,-1,-1,-1,-1,-1,-1,-1,-1,-1,-1,-1,-1,-1,-1,-1,-1,-1],"split_conditions":[4E2,1E0,2.5881904E-1,-9.659258E-1,2.5881904E-1,-7.0710677E-1,1.5E3,3E0,-4.5929632E-1,-7.0710677E-1,-8.660254E-1,2.5881904E-1,4E0,1E0,1E0,3E2,1.4941406E-2,-5.2150387E-1,2.5881904E-1,1.5896607E-2,8E0,1.5E3,1.5E3,1E0,3E0,1E0,1E0,5E0,1.2867802E0,4E0,-3.6359635E-1,1.2E1,-5.643307E-1,1E0,2E0,1E0,1E0,1E0,1.0093578E0,7.376091E-1,1E0,5.203457E-1,1E3,5.5E2,5.526722E-1,4E0,4E0,1.6E1,1.5E1,-1.2353573E-1,-2.414505E-1,-1.7242432E-4,-3.6869813E-2,2.1148682E-2,-5.66906E-2,-8.0589294E-2,3.048916E-2,4.136963E-2,-3.4037247E-1,7.242852E-2,1.1300348E0,9.1415673E-1,4.561634E-2,-4.5434954E-3,1.1324482E0,-5.66864E-2,1.4528944E0,-4.1327477E-2,-9.558869E-3,-4.4148293E-1,-1.1155663E-1,-9.883251E-2,2.2807522E-1,8.0294035E-2,-3.4107592E-2,1.3432694E-2,1.3921204E-1],"split_indices":[5,7,0,1,1,0,5,2,0,0,0,1,3,3,7,5,0,0,0,0,4,5,5,3,2,7,7,3,0,4,0,4,0,2,2,3,7,3,0,0,7,0,5,5,0,3,3,4,4,0,0,0,0,0,0,0,0,0,0,0,0,0,0,0,0,0,0,0,0,0,0,0,0,0,0,0,0],"split_type":[0,0,0,0,0,0,0,0,0,0,0,0,0,0,0,0,0,0,0,0,0,0,0,0,0,0,0,0,0,0,0,0,0,0,0,0,0,0,0,0,0,0,0,0,0,0,0,0,0,0,0,0,0,0,0,0,0,0,0,0,0,0,0,0,0,0,0,0,0,0,0,0,0,0,0,0,0],"sum_hessian":[3.988E3,1.023E3,2.965E3,9.39E2,8.4E1,2.473E3,4.92E2,6.7E1,8.72E2,5.3E1,3.1E1,1.128E3,1.345E3,4.06E2,8.6E1,6.6E1,1E0,2.5E1,2.8E1,8E0,2.3E1,6.94E2,4.34E2,8.26E2,5.19E2,1.18E2,2.88E2,7.7E1,9E0,3E1,3.6E1,2E1,8E0,1.2E1,1.1E1,5.72E2,1.22E2,3.37E2,9.7E1,3.41E2,4.85E2,5.11E2,8E0,1.03E2,1.5E1,2.48E2,4E1,4.2E1,3.5E1,5E0,2.5E1,1.5E1,5E0,6E0,6E0,9E0,2E0,1.81E2,3.91E2,1.1E2,1.2E1,9.3E1,2.44E2,4.46E2,3.9E1,2E0,6E0,2.8E1,7.5E1,1.5E2,9.8E1,2.6E1,1.4E1,4.1E1,1E0,3E1,5E0],"tree_param":{"num_deleted":"0","num_feature":"8","num_nodes":"77","size_leaf_vector":"1"}},{"base_weights":[-4.3619953E-2,-9.091797E-1,2.552259E-1,-9.457447E-1,-4.9411765E-1,3.714632E-1,-3.286004E-1,-9.613466E-1,-8.489209E-1,-7.222222E-1,-9.375E-2,7.440212E-2,6.203566E-1,-4.7174448E-1,3.448276E-1,-8.382353E-1,-9.714286E-2,-9.615385E-2,-6.935484E-1,-9.615385E-2,-4.827586E-1,3.5714287E-1,-4.2105263E-1,-2.0719424E-1,5.241379E-1,4.4256347E-1,9.0192306E-1,3.3613447E-2,-6.782007E-1,2.6923078E-1,8.9999996E-2,-8.6567163E-1,5E-2,-8.3333336E-2,-3.809524E-1,-2.857143E-1,-8.888889E-2,-2.5E-1,5.4545456E-1,2.5E-1,-5.625E-1,-3.0497593E-1,6.3013697E-1,3.8757396E-1,9.897959E-2,9.97076E-2,5.144033E-2,8.338762E-1,9.9532716E-2,-1.0576923E-1,9.375E-2,-7.871486E-1,-0E0,5.625E-1,1.904762E-1,-7.096774E-2,-9.72973E-2,-5E-2,2.5E-2,-6.25E-3,-8.3333336E-2,5E-2,-6.666667E-2,8.571429E-2,-0E0,-0E0,5E-2,-8.75E-2,-2.2222223E-2,-4.2105265E-2,2.3423424E-2,3.8636364E-2,9.6666664E-2,9.893617E-2,1.5510204E-2,-3.131991E-3,9.7500004E-2,8.459017E-2,-6.666667E-2,-2.0338982E-2,2.1739132E-3,-9.668874E-2,-5.050505E-2,-3.7037037E-2,6.666667E-2,7.272728E-2,1.6666668E-2,-1.875E-2,3.125E-2],"categories":[],"categories_nodes":[],"categories_segments":[],"categories_sizes":[],"default_left":[0,0,0,0,0,0,0,0,0,0,0,0,0,0,0,0,0,0,0,0,0,0,0,0,0,0,0,0,0,0,0,0,0,0,0,0,0,0,0,0,0,0,0,0,0,0,0,0,0,0,0,0,0,0,0,0,0,0,0,0,0,0,0,0,0,0,0,0,0,0,0,0,0,0,0,0,0,0,0,0,0,0,0,0,0,0,0,0,0],"id":11,"left_children":[1,3,5,7,9,11,13,15,17,19,21,23,25,27,29,31,-1,-1,33,-1,35,37,39,41,43,45,47,49,51,53,-1,55,-1,-1,57,59,-1,61,63,65,67,69,71,73,-1,-1,75,77,-1,79,-1,81,83,85,87,-1,-1,-1,-1,-1,-1,-1,-1,-1,-1,-1,-1,-1,-1,-1,-1,-1,-1,-1,-1,-1,-1,-1,-1,-1,-1,-1,-1,-1,-1,-1,-1,-1,-1],"loss_changes":[1.0320625E3,1.5073669E1,2.0140196E2,6.0388184E-1,7.694975E0,1.828728E2,4.7686497E1,1.8115234E-1,1.7653046E0,2.6304169E0,4.872885E0,1.4308963E2,6.698242E1,4.2486862E1,3.4090195E0,2.9295425E0,0E0,0E0,2.3917065E0,0E0,2.0667758E0,1.737013E0,1.9440789E0,5.709576E1,2.7278946E1,1.793107E2,2.4750671E0,1.5091508E1,2.135379E1,1.6943679E0,0E0,4.3097687E-1,0E0,0E0,1.7023809E0,2.5148807E0,0E0,1.5833334E0,1.8701298E0,2.5E-1,1.5069447E0,3.9092026E1,5.6152153E0,4.713232E1,0E0,0E0,3.7177475E1,6.103653E0,0E0,1.2989556E0,0E0,1.2136963E1,1.037037E1,9.223485E-1,2.9642856E0,0E0,0E0,0E0,0E0,0E0,0E0,0E0,0E0,0E0,0E0,0E0,0E0,0E0,0E0,0E0,0E0,0E0,0E0,0E0,0E0,0E0,0E0,0E0,0E0,0E0,0E0,0E0,0E0,0E0,0E0,0E0,0E0,0E0,0E0],"parents":[2147483647,0,0,1,1,2,2,3,3,4,4,5,5,6,6,7,7,8,8,9,9,10,10,11,11,12,12,13,13,14,14,15,15,18,18,20,20,21,21,22,22,23,23,24,24,25,25,26,26,27,27,28,28,29,29,31,31,34,34,35,35,37,37,38,38,39,39,40,40,41,41,42,42,43,43,46,46,47,47,49,49,51,51,52,52,53,53,54,54],"right_children":[2,4,6,8,10,12,14,16,18,20,22,24,26,28,30,32,-1,-1,34,-1,36,38,40,42,44,46,48,50,52,54,-1,56,-1,-1,58,60,-1,62,64,66,68,70,72,74,-1,-1,76,78,-1,80,-1,82,84,86,88,-1,-1,-1,-1,-1,-1,-1,-1,-1,-1,-1,-1,-1,-1,-1,-1,-1,-1,-1,-1,-1,-1,-1,-1,-1,-1,-1,-1,-1,-1,-1,-1,-1,-1],"split_conditions":[4E2,1E0,2.5881904E-1,7.0710677E-1,2.5881904E-1,-7.0710677E-1,1.5E3,-9.659258E-1,3E2,-7.0710677E-1,-7.0710677E-1,2.5881904E-1,4E0,1E0,1E0,3E0,-7.921322E-1,-2.7002928E-1,1E0,-4.693535E-1,2.5881904E-1,5E0,2E0,1E0,1.5E3,1E0,1.5E3,1E0,1E0,4E0,1.158102E0,3E2,1.344719E-2,-2.226675E-1,2E0,1.2E1,-5.0789756E-1,2E0,1E0,-5E-1,1E0,1.5E3,4E0,1E0,9.084221E-1,6.638481E-1,1E0,3E0,1.3900505E0,6E2,4.9740487E-1,4E0,4E0,5E0,7E0,-2.0600815E-1,-3.2723674E-1,-2.9149228E-1,8.553352E-2,-1.5525818E-4,-3.3182908E-2,2.4343872E-2,-4.490452E-2,3.1840324E-2,2.0895004E-3,-8.409023E-2,4.9355317E-2,-7.253037E-2,-2.5291635E-2,-1.4014368E-1,6.518555E-2,1.11608505E-1,8.3834076E-1,8.22741E-1,4.1054726E-2,-4.089165E-3,1.0192035E0,2.4160194E-1,-5.101776E-2,-2.3930931E-2,2.6950836E-3,-3.9733467E-1,-1.00400925E-1,-8.89494E-2,2.0526753E-1,8.345737E-2,5.3714372E-2,-1.816826E-2,7.2264485E-2],"split_indices":[5,7,0,1,1,0,5,1,5,0,0,1,3,3,7,2,0,0,6,0,0,4,4,7,5,3,5,7,7,4,0,5,0,0,2,4,0,4,6,0,2,5,3,3,0,0,7,2,0,5,0,3,3,3,4,0,0,0,0,0,0,0,0,0,0,0,0,0,0,0,0,0,0,0,0,0,0,0,0,0,0,0,0,0,0,0,0,0,0],"split_type":[0,0,0,0,0,0,0,0,0,0,0,0,0,0,0,0,0,0,0,0,0,0,0,0,0,0,0,0,0,0,0,0,0,0,0,0,0,0,0,0,0,0,0,0,0,0,0,0,0,0,0,0,0,0,0,0,0,0,0,0,0,0,0,0,0,0,0,0,0,0,0,0,0,0,0,0,0,0,0,0,0,0,0,0,0,0,0,0,0],"sum_hessian":[3.988E3,1.023E3,2.965E3,9.39E2,8.4E1,2.473E3,4.92E2,8.01E2,1.38E2,5.3E1,3.1E1,1.128E3,1.345E3,4.06E2,8.6E1,6.7E1,7.34E2,7.7E1,6.1E1,2.5E1,2.8E1,1.3E1,1.8E1,6.94E2,4.34E2,8.26E2,5.19E2,1.18E2,2.88E2,7.7E1,9E0,6.6E1,1E0,4.1E1,2E1,2E1,8E0,3E0,1E1,3E0,1.5E1,6.22E2,7.2E1,3.37E2,9.7E1,3.41E2,4.85E2,3.06E2,2.13E2,1.03E2,1.5E1,2.48E2,4E1,1.5E1,6.2E1,3E1,3.6E1,1.7E1,3E0,1.5E1,5E0,1E0,2E0,6E0,4E0,2E0,1E0,7E0,8E0,5.12E2,1.1E2,4.3E1,2.9E1,9.3E1,2.44E2,4.46E2,3.9E1,3.04E2,2E0,5.8E1,4.5E1,1.5E2,9.8E1,2.6E1,1.4E1,1E1,5E0,1.5E1,4.7E1],"tree_param":{"num_deleted":"0","num_feature":"8","num_nodes":"89","size_leaf_vector":"1"}},{"base_weights":[-2.055653E-2,-7.179289E-1,3.1416914E-1,-2.804428E-1,-8.330078E-1,4.325893E-1,-2.6695842E-1,-3.669355E-1,6.25E-1,-8.6702126E-1,-4.4705883E-1,1.5988372E-1,6.650124E-1,-4.097035E-1,3.448276E-1,-6.847826E-1,-1.7834395E-1,8.235294E-1,1.25E-1,-9.380054E-1,-8.1929827E-1,-7.222222E-1,3.125E-2,-1.0534591E-1,5.843829E-1,9.97076E-2,5.3341013E-1,3.3613447E-2,-6.166008E-1,2.6923078E-1,8.9999996E-2,-9.818182E-2,-2.3684211E-1,3.2E-2,-9.69697E-2,9.375E-2,-5E-2,-6.666667E-2,5E-1,-9.956141E-2,-8.402778E-2,-7.570755E-1,-9.9319726E-2,-9.615385E-2,-4.827586E-1,5E-1,-3.1578946E-1,-1.9332162E-1,6.3235295E-1,4.5E-1,9.897959E-2,2.2922637E-2,8.75E-1,-1.0576923E-1,9.375E-2,-8.652482E-1,-3.0088496E-1,5.625E-1,1.904762E-1,-2.7027026E-2,5E-2,4.9586776E-3,-4.0000003E-2,-0E0,7.5E-2,-7.757256E-2,-5.869565E-2,-2.857143E-2,-8.888889E-2,8.571429E-2,1.25E-2,2.857143E-2,-6.1538465E-2,1.5568863E-2,-3.37469E-2,3.5897437E-2,9.6666664E-2,9.893617E-2,2.0289855E-2,-5.5727554E-3,9.62963E-2,7.8827366E-2,9.9532716E-2,-2.0338982E-2,2.1739132E-3,-9.579832E-2,-3.478261E-2,-4.4444446E-2,6.666667E-2,7.272728E-2,1.6666668E-2,-1.875E-2,3.125E-2],"categories":[],"categories_nodes":[],"categories_segments":[],"categories_sizes":[],"default_left":[0,0,0,0,0,0,0,0,0,0,0,0,0,0,0,0,0,0,0,0,0,0,0,0,0,0,0,0,0,0,0,0,0,0,0,0,0,0,0,0,0,0,0,0,0,0,0,0,0,0,0,0,0,0,0,0,0,0,0,0,0,0,0,0,0,0,0,0,0,0,0,0,0,0,0,0,0,0,0,0,0,0,0,0,0,0,0,0,0,0,0,0,0],"id":12,"left_children":[1,3,5,7,9,11,13,15,17,19,21,23,25,27,29,31,33,35,37,39,41,43,45,47,49,-1,51,53,55,57,-1,-1,59,61,-1,-1,-1,-1,63,-1,-1,65,-1,-1,67,69,71,73,75,77,-1,79,81,83,-1,85,87,89,91,-1,-1,-1,-1,-1,-1,-1,-1,-1,-1,-1,-1,-1,-1,-1,-1,-1,-1,-1,-1,-1,-1,-1,-1,-1,-1,-1,-1,-1,-1,-1,-1,-1,-1],"loss_changes":[9.313716E2,6.491339E1,1.856467E2,2.1452475E1,1.3054871E1,1.4187177E2,4.005083E1,1.4743805E1,2.2794113E0,2.4158325E0,1.1209681E1,1.16254196E2,5.230182E1,3.404924E1,3.4090195E0,1.2008457E1,2.6164673E1,3.0330887E0,2.7083335E0,1.2521057E0,5.415741E0,2.6304169E0,5.363487E0,4.1398376E1,2.1183365E1,0E0,1.513395E2,1.5091508E1,1.9600655E1,1.6943679E0,0E0,0E0,1.0711238E0,9.695207E-1,0E0,0E0,0E0,0E0,7.5E-1,0E0,0E0,8.899231E-1,0E0,0E0,2.0667758E0,1.7678571E0,3.599769E0,2.867831E1,5.867798E0,3.978237E1,0E0,2.585675E1,4.6419067E0,1.2989556E0,0E0,6.4324036E0,1.5992133E1,9.223485E-1,2.9642856E0,0E0,0E0,0E0,0E0,0E0,0E0,0E0,0E0,0E0,0E0,0E0,0E0,0E0,0E0,0E0,0E0,0E0,0E0,0E0,0E0,0E0,0E0,0E0,0E0,0E0,0E0,0E0,0E0,0E0,0E0,0E0,0E0,0E0,0E0],"parents":[2147483647,0,0,1,1,2,2,3,3,4,4,5,5,6,6,7,7,8,8,9,9,10,10,11,11,12,12,13,13,14,14,15,15,16,16,17,17,18,18,19,19,20,20,21,21,22,22,23,23,24,24,26,26,27,27,28,28,29,29,32,32,33,33,38,38,41,41,44,44,45,45,46,46,47,47,48,48,49,49,51,51,52,52,53,53,55,55,56,56,57,57,58,58],"right_children":[2,4,6,8,10,12,14,16,18,20,22,24,26,28,30,32,34,36,38,40,42,44,46,48,50,-1,52,54,56,58,-1,-1,60,62,-1,-1,-1,-1,64,-1,-1,66,-1,-1,68,70,72,74,76,78,-1,80,82,84,-1,86,88,90,92,-1,-1,-1,-1,-1,-1,-1,-1,-1,-1,-1,-1,-1,-1,-1,-1,-1,-1,-1,-1,-1,-1,-1,-1,-1,-1,-1,-1,-1,-1,-1,-1,-1,-1],"split_conditions":[4.5E2,4E0,2.5881904E-1,1E0,1E0,-7.0710677E-1,1.5E3,-7.0710677E-1,1E0,-7.0710677E-1,2.5881904E-1,2.5881904E-1,1E0,1E0,1E0,2.5881904E-1,2.5881904E-1,2.5881904E-1,-7.0710677E-1,2.5881904E-1,2.5881904E-1,-7.0710677E-1,-7.0710677E-1,1E0,1.5E3,5.9746325E-1,4E0,1E0,4E0,4E0,1.0422916E0,-5.2407473E-1,4E0,3E0,-3.826395E-1,6.0562056E-1,-2.6995373E-1,-2.9660607E-2,-8.660254E-1,-1.0187016E0,-1.7187786E-1,2E0,-1.0003476E0,-4.224182E-1,2.5881904E-1,1E0,3E0,1E0,4E0,1E0,8.1758004E-1,1E0,1.5E3,6E2,4.4766426E-1,1E0,1E0,5E0,7E0,-4.64365E-2,4.732361E-2,8.936691E-3,-1.5923692E-2,2.3264141E-1,4.5398332E-2,-1.9502726E-1,-1.7417851E-1,-1.0261727E-2,-4.5710775E-1,7.373047E-3,2.1909332E-2,1.9475937E-2,-4.640446E-2,3.7046243E-2,-1.1394777E-1,2.4304925E-1,7.545067E-1,7.404667E-1,6.6995434E-2,-7.851792E-3,1.0798937E0,2.160492E-1,1.2510456E0,-2.1537973E-2,2.4253845E-3,-3.4579164E-1,-8.8587575E-2,-9.036102E-2,1.8474065E-1,7.511158E-2,4.8342895E-2,-1.6351318E-2,6.503792E-2],"split_indices":[5,3,0,7,7,0,5,0,2,0,1,1,3,3,7,1,0,0,0,1,0,0,0,7,5,0,3,7,3,4,0,0,2,2,0,0,0,0,1,0,0,2,0,0,0,2,4,3,3,3,0,7,5,5,0,7,7,3,4,0,0,0,0,0,0,0,0,0,0,0,0,0,0,0,0,0,0,0,0,0,0,0,0,0,0,0,0,0,0,0,0,0,0],"split_type":[0,0,0,0,0,0,0,0,0,0,0,0,0,0,0,0,0,0,0,0,0,0,0,0,0,0,0,0,0,0,0,0,0,0,0,0,0,0,0,0,0,0,0,0,0,0,0,0,0,0,0,0,0,0,0,0,0,0,0,0,0,0,0,0,0,0,0,0,0,0,0,0,0,0,0,0,0,0,0,0,0,0,0,0,0,0,0,0,0,0,0,0,0],"sum_hessian":[3.988E3,1.293E3,2.695E3,2.7E2,1.023E3,2.239E3,4.56E2,2.47E2,2.3E1,9.39E2,8.4E1,1.031E3,1.208E3,3.7E2,8.6E1,9.1E1,1.56E2,1.6E1,7E0,3.7E2,5.69E2,5.3E1,3.1E1,6.35E2,3.96E2,3.41E2,8.67E2,1.18E2,2.52E2,7.7E1,9E0,5.4E1,3.7E1,1.24E2,3.2E1,1.5E1,1E0,2E0,5E0,2.27E2,1.43E2,4.23E2,1.46E2,2.5E1,2.8E1,1.3E1,1.8E1,5.68E2,6.7E1,2.99E2,9.7E1,3.48E2,5.19E2,1.03E2,1.5E1,1.4E2,1.12E2,1.5E1,6.2E1,3.6E1,1E0,1.2E2,4E0,2E0,3E0,3.78E2,4.5E1,2E1,8E0,6E0,7E0,6E0,1.2E1,1.66E2,4.02E2,3.8E1,2.9E1,9.3E1,2.06E2,3.22E2,2.6E1,3.06E2,2.13E2,5.8E1,4.5E1,1.18E2,2.2E1,9.8E1,1.4E1,1E1,5E0,1.5E1,4.7E1],"tree_param":{"num_deleted":"0","num_feature":"8","num_nodes":"93","size_leaf_vector":"1"}},{"base_weights":[-1.3537227E-2,-6.9629055E-1,3.1416914E-1,-2.804428E-1,-8.0566406E-1,4.3169641E-1,-2.6258206E-1,-6.22449E-1,-8.62069E-2,-8.393617E-1,-4.2352942E-1,1.6957365E-1,6.550869E-1,-3.9892185E-1,3.218391E-1,-9.166667E-1,-1.5384616E-1,1.23188406E-1,-8.648649E-1,-9.2183286E-1,-7.842105E-1,-6.481481E-1,-3.125E-2,-8.018868E-2,5.6926954E-1,9.912281E-2,5.218894E-1,3.3613447E-2,-6.007905E-1,2.4358974E-1,8.9999996E-2,-9.818182E-2,-1.6666667E-1,-1.8421052E-1,5E-2,3.2E-2,9.2857145E-2,-9.69697E-2,-0E0,-9.956141E-2,-7.986111E-1,-7.099057E-1,-9.9319726E-2,-9.615385E-2,-3.448276E-1,2.777778E-1,-4E-1,-3.153409E-1,2.1052632E-1,4.3E-1,9.897959E-2,2.8653296E-2,8.5192305E-1,-1.0576923E-1,9.375E-2,-8.652482E-1,-2.6548672E-1,3.28125E-1,-1.3333334E-1,2.5E-2,-6.666667E-2,-4.166667E-3,-4.0000003E-2,4.9586776E-3,-4.0000003E-2,-5E-2,2.5E-2,-9.6666664E-2,-7.478261E-2,-7.29798E-2,-4.1379314E-2,-9.52381E-3,-8.888889E-2,5E-2,-4.0000003E-2,-6.1538465E-2,6.666667E-2,2.1428572E-2,-8.77193E-2,1.2109376E-2,9.6666664E-2,9.893617E-2,1.7391305E-2,-4.9535604E-3,9.62963E-2,7.028302E-2,9.5145635E-2,-2.0338982E-2,2.1739132E-3,-9.579832E-2,-3.478261E-2,-4.040404E-2,6.666667E-2,2.5E-2,6.1538465E-2,-3.636364E-2,4.0000003E-2],"categories":[],"categories_nodes":[],"categories_segments":[],"categories_sizes":[],"default_left":[0,0,0,0,0,0,0,0,0,0,0,0,0,0,0,0,0,0,0,0,0,0,0,0,0,0,0,0,0,0,0,0,0,0,0,0,0,0,0,0,0,0,0,0,0,0,0,0,0,0,0,0,0,0,0,0,0,0,0,0,0,0,0,0,0,0,0,0,0,0,0,0,0,0,0,0,0,0,0,0,0,0,0,0,0,0,0,0,0,0,0,0,0,0,0,0,0],"id":13,"left_children":[1,3,5,7,9,11,13,15,17,19,21,23,25,27,29,31,33,35,37,39,41,43,45,47,49,-1,51,53,55,57,-1,-1,59,61,-1,63,-1,-1,65,-1,67,69,-1,-1,71,73,75,77,79,81,-1,83,85,87,-1,89,91,93,95,-1,-1,-1,-1,-1,-1,-1,-1,-1,-1,-1,-1,-1,-1,-1,-1,-1,-1,-1,-1,-1,-1,-1,-1,-1,-1,-1,-1,-1,-1,-1,-1,-1,-1,-1,-1,-1,-1],"loss_changes":[8.92728E2,5.8628723E1,1.8285904E2,1.7948835E1,1.2830627E1,1.3105377E2,3.6542076E1,1.33703575E1,2.8476774E1,3.5525513E0,7.4693756E0,1.0306915E2,5.3613403E1,3.241418E1,3.716711E0,2.7681808E0,8.663967E-1,1.0105226E1,3.3546276E0,2.5778198E0,8.146301E0,4.8015537E0,3.757639E0,4.35448E1,2.2825287E1,0E0,1.4127255E2,1.5091508E1,2.2204727E1,2.5290866E0,0E0,0E0,1.4166667E0,1.1521932E0,0E0,9.695207E-1,0E0,0E0,7.5E-1,0E0,5.060959E-1,2.1955261E0,0E0,0E0,3.8533118E0,2.9111114E0,3.8564105E0,1.0493326E2,1.9155659E1,4.2801506E1,0E0,2.5543074E1,7.0479126E0,1.2989556E0,0E0,6.4324036E0,1.486368E1,1.2824516E0,1.9878788E0,0E0,0E0,0E0,0E0,0E0,0E0,0E0,0E0,0E0,0E0,0E0,0E0,0E0,0E0,0E0,0E0,0E0,0E0,0E0,0E0,0E0,0E0,0E0,0E0,0E0,0E0,0E0,0E0,0E0,0E0,0E0,0E0,0E0,0E0,0E0,0E0,0E0,0E0],"parents":[2147483647,0,0,1,1,2,2,3,3,4,4,5,5,6,6,7,7,8,8,9,9,10,10,11,11,12,12,13,13,14,14,15,15,16,16,17,17,18,18,19,19,20,20,21,21,22,22,23,23,24,24,26,26,27,27,28,28,29,29,32,32,33,33,35,35,38,38,40,40,41,41,44,44,45,45,46,46,47,47,48,48,49,49,51,51,52,52,53,53,55,55,56,56,57,57,58,58],"right_children":[2,4,6,8,10,12,14,16,18,20,22,24,26,28,30,32,34,36,38,40,42,44,46,48,50,-1,52,54,56,58,-1,-1,60,62,-1,64,-1,-1,66,-1,68,70,-1,-1,72,74,76,78,80,82,-1,84,86,88,-1,90,92,94,96,-1,-1,-1,-1,-1,-1,-1,-1,-1,-1,-1,-1,-1,-1,-1,-1,-1,-1,-1,-1,-1,-1,-1,-1,-1,-1,-1,-1,-1,-1,-1,-1,-1,-1,-1,-1,-1,-1],"split_conditions":[4.5E2,4E0,2.5881904E-1,-7.0710677E-1,1E0,-7.0710677E-1,1.5E3,2.5881904E-1,2.5881904E-1,-7.0710677E-1,2.5881904E-1,2.5881904E-1,1E0,1E0,1E0,1E0,4E0,1E0,1E0,2.5881904E-1,2.5881904E-1,-7.0710677E-1,8E0,4E0,1.5E3,5.3771704E-1,4E0,1E0,4E0,2E0,9.3806267E-1,-4.716673E-1,1E0,1E0,4.2591095E-2,3E0,5.722828E-1,-3.443756E-1,5E-1,-9.1683143E-1,4E0,1.6E1,-9.003129E-1,-3.8017637E-1,2.5881904E-1,2E0,2E0,1E0,1E0,1E0,7.358219E-1,1E0,1E3,6E2,4.0289804E-1,1E0,1E0,1.4E1,3E0,6.760407E-3,-2.669468E-2,-1.4031219E-2,-6.701698E-2,8.042908E-3,-1.4331437E-2,-7.437897E-2,2.4624253E-2,-1.9834022E-1,-1.2942171E-1,-1.7857133E-1,-9.978094E-2,-9.235573E-3,-4.1139698E-1,1.9718552E-2,-3.4897424E-2,-4.176388E-2,2.8337479E-2,4.7542572E-2,-6.111347E-1,2.4461938E-2,6.7905617E-1,6.6642E-1,6.029606E-2,-7.0667267E-3,9.719042E-1,1.9076005E-1,1.062767E0,-1.9384194E-2,2.1827698E-3,-3.1121254E-1,-7.97287E-2,-8.132477E-2,1.6626644E-1,4.9445726E-2,1.0401287E-1,-1.3237953E-2,1.4391862E-1],"split_indices":[5,3,0,0,7,0,5,1,0,0,1,1,3,3,7,7,2,7,7,1,0,0,4,3,5,0,3,7,3,2,0,0,2,2,0,2,0,0,0,0,4,4,0,0,0,2,2,3,7,3,0,7,5,5,0,7,7,4,2,0,0,0,0,0,0,0,0,0,0,0,0,0,0,0,0,0,0,0,0,0,0,0,0,0,0,0,0,0,0,0,0,0,0,0,0,0,0],"split_type":[0,0,0,0,0,0,0,0,0,0,0,0,0,0,0,0,0,0,0,0,0,0,0,0,0,0,0,0,0,0,0,0,0,0,0,0,0,0,0,0,0,0,0,0,0,0,0,0,0,0,0,0,0,0,0,0,0,0,0,0,0,0,0,0,0,0,0,0,0,0,0,0,0,0,0,0,0,0,0,0,0,0,0,0,0,0,0,0,0,0,0,0,0,0,0,0,0],"sum_hessian":[3.988E3,1.293E3,2.695E3,2.7E2,1.023E3,2.239E3,4.56E2,9.7E1,1.73E2,9.39E2,8.4E1,1.031E3,1.208E3,3.7E2,8.6E1,5.9E1,3.8E1,1.37E2,3.6E1,3.7E2,5.69E2,5.3E1,3.1E1,6.35E2,3.96E2,3.41E2,8.67E2,1.18E2,2.52E2,7.7E1,9E0,5.4E1,5E0,3.7E1,1E0,1.24E2,1.3E1,3.2E1,4E0,2.27E2,1.43E2,4.23E2,1.46E2,2.5E1,2.8E1,1.7E1,1.4E1,3.51E2,2.84E2,2.99E2,9.7E1,3.48E2,5.19E2,1.03E2,1.5E1,1.4E2,1.12E2,6.3E1,1.4E1,3E0,2E0,2.3E1,1.4E1,1.2E2,4E0,1E0,3E0,2.9E1,1.14E2,3.95E2,2.8E1,2E1,8E0,1.3E1,4E0,1.2E1,2E0,1.81E2,1.7E2,2.55E2,2.9E1,9.3E1,2.06E2,3.22E2,2.6E1,2.11E2,3.08E2,5.8E1,4.5E1,1.18E2,2.2E1,9.8E1,1.4E1,5.1E1,1.2E1,1E1,4E0],"tree_param":{"num_deleted":"0","num_feature":"8","num_nodes":"97","size_leaf_vector":"1"}},{"base_weights":[-1.8551014E-2,-6.653787E-1,2.9191396E-1,-2.7306274E-1,-7.685547E-1,4.013393E-1,-2.4507658E-1,-3.5887095E-1,6.25E-1,-8.031915E-1,-3.764706E-1,1.6182171E-1,6.0545903E-1,-3.7196764E-1,2.9885057E-1,-2.638889E-1,-9.69697E-2,7.5E-1,-0E0,-7.670025E-1,-9.9319726E-2,-6.481481E-1,9.375E-2,-8.647799E-2,5.5919397E-1,9.912281E-2,4.52765E-1,5.042017E-2,-5.6916994E-1,2.1794872E-1,8.9999996E-2,-6.630435E-1,3.2E-2,2.857143E-1,9.2857145E-2,-5E-2,2.5E-1,-6.118881E-1,-8.5265225E-1,-9.615385E-2,-3.448276E-1,8.888889E-2,-2.0833333E-1,-3.2102272E-1,2.0350876E-1,4.1666666E-1,9.897959E-2,2.8653296E-2,7.3653847E-1,-8.6538464E-2,9.375E-2,-8.0851066E-1,-2.6548672E-1,2.96875E-1,-1.3333334E-1,-9.818182E-2,-1.8421052E-2,4.9586776E-3,-4.0000003E-2,-2.5E-2,7.5E-2,-5E-2,6.666667E-2,-4.0000003E-2,-6.839623E-2,-9.956141E-2,-7.340425E-2,-9.52381E-3,-8.888889E-2,1.5384616E-2,-5.8333334E-2,1.8131869E-2,-8.538012E-2,1.1328125E-2,9.6666664E-2,9.893617E-2,1.5458937E-2,-4.9535604E-3,9.62963E-2,5.5374593E-2,9.9532716E-2,-2.7586207E-2,-1.3157895E-3,-5E-2,-9.6739136E-2,-3.636364E-2,4.0000003E-2,2.4561403E-2,6.25E-2,-3.636364E-2,4.0000003E-2],"categories":[],"categories_nodes":[],"categories_segments":[],"categories_sizes":[],"default_left":[0,0,0,0,0,0,0,0,0,0,0,0,0,0,0,0,0,0,0,0,0,0,0,0,0,0,0,0,0,0,0,0,0,0,0,0,0,0,0,0,0,0,0,0,0,0,0,0,0,0,0,0,0,0,0,0,0,0,0,0,0,0,0,0,0,0,0,0,0,0,0,0,0,0,0,0,0,0,0,0,0,0,0,0,0,0,0,0,0,0,0],"id":14,"left_children":[1,3,5,7,9,11,13,15,17,19,21,23,25,27,29,31,-1,33,35,37,-1,39,41,43,45,-1,47,49,51,53,-1,55,57,59,-1,-1,61,63,65,-1,67,-1,69,71,73,75,-1,77,79,81,-1,83,85,87,89,-1,-1,-1,-1,-1,-1,-1,-1,-1,-1,-1,-1,-1,-1,-1,-1,-1,-1,-1,-1,-1,-1,-1,-1,-1,-1,-1,-1,-1,-1,-1,-1,-1,-1,-1,-1],"loss_changes":[8.012545E2,5.216815E1,1.5851631E2,2.1107872E1,1.3604065E1,1.0941626E2,3.1653072E1,1.4132456E1,1.875E0,5.701782E0,1.0919375E1,1.0187313E2,7.076691E1,3.0931458E1,4.035013E0,2.5531982E1,0E0,1.3928566E0,7.5E-1,1.0026978E1,0E0,4.8015537E0,7.8715277E0,4.332279E1,2.3952477E1,0E0,1.0444414E2,1.4538825E1,1.817434E1,2.2021637E0,0E0,1.3862003E1,9.695207E-1,1.9285715E0,0E0,0E0,1.5833334E0,4.0941086E0,7.9000854E0,0E0,3.8533118E0,0E0,3.3493595E0,9.4362915E1,1.951498E1,4.4874165E1,0E0,2.5543074E1,2.4047241E1,1.4412082E0,0E0,6.4276123E0,7.5263076E0,9.229717E-1,1.9878788E0,0E0,0E0,0E0,0E0,0E0,0E0,0E0,0E0,0E0,0E0,0E0,0E0,0E0,0E0,0E0,0E0,0E0,0E0,0E0,0E0,0E0,0E0,0E0,0E0,0E0,0E0,0E0,0E0,0E0,0E0,0E0,0E0,0E0,0E0,0E0,0E0],"parents":[2147483647,0,0,1,1,2,2,3,3,4,4,5,5,6,6,7,7,8,8,9,9,10,10,11,11,12,12,13,13,14,14,15,15,17,17,18,18,19,19,21,21,22,22,23,23,24,24,26,26,27,27,28,28,29,29,31,31,32,32,33,33,36,36,37,37,38,38,40,40,42,42,43,43,44,44,45,45,47,47,48,48,49,49,51,51,52,52,53,53,54,54],"right_children":[2,4,6,8,10,12,14,16,18,20,22,24,26,28,30,32,-1,34,36,38,-1,40,42,44,46,-1,48,50,52,54,-1,56,58,60,-1,-1,62,64,66,-1,68,-1,70,72,74,76,-1,78,80,82,-1,84,86,88,90,-1,-1,-1,-1,-1,-1,-1,-1,-1,-1,-1,-1,-1,-1,-1,-1,-1,-1,-1,-1,-1,-1,-1,-1,-1,-1,-1,-1,-1,-1,-1,-1,-1,-1,-1,-1],"split_conditions":[4.5E2,4E0,2.5881904E-1,1E0,1E0,-7.0710677E-1,1.5E3,2.5881904E-1,2.5881904E-1,2.5881904E-1,2.5881904E-1,2.5881904E-1,1E0,1E0,1E0,-7.0710677E-1,-3.0993804E-1,-7.0710677E-1,5E-1,-5E-1,-8.102817E-1,-7.0710677E-1,-8.660254E-1,4E0,1.5E3,4.8394546E-1,4E0,1E0,4E0,2E0,8.442562E-1,2.5881904E-1,3E0,-1.8369701E-16,5.150547E-1,-6.6941075E-2,1E0,-5E-1,2.5881904E-1,-3.421587E-1,2.5881904E-1,1.2623406E-2,8E0,1E0,1E0,1E0,6.6223985E-1,1E0,1.5E3,5.5E2,3.6260834E-1,5.5E2,1E0,1.5E1,3E0,-4.2450047E-1,-3.6848452E-2,7.2387694E-3,-1.2898254E-2,-4.8191644E-2,2.8316346E-1,-2.4542065E-1,3.027897E-2,-8.7874316E-2,-1.4741917E-1,-8.251482E-1,-1.583025E-1,-8.312034E-3,-3.7025738E-1,5.200386E-3,-5.5523682E-2,4.2788316E-2,-5.500212E-1,2.2015763E-2,6.1115074E-1,5.99778E-1,5.426655E-2,-6.3598636E-3,8.747137E-1,1.4573136E-1,1.0196644E0,-3.0709649E-2,-2.11792E-3,-8.754959E-2,-3.4562168E-1,-7.319222E-2,1.4963971E-1,4.336529E-2,1.0115929E-1,-1.1914253E-2,1.295269E-1],"split_indices":[5,3,0,7,7,0,5,0,0,0,1,1,3,3,7,0,0,0,0,1,0,0,0,3,5,0,3,7,3,2,0,1,2,1,0,0,2,0,1,0,0,0,4,3,7,3,0,7,5,5,0,5,7,4,2,0,0,0,0,0,0,0,0,0,0,0,0,0,0,0,0,0,0,0,0,0,0,0,0,0,0,0,0,0,0,0,0,0,0,0,0],"split_type":[0,0,0,0,0,0,0,0,0,0,0,0,0,0,0,0,0,0,0,0,0,0,0,0,0,0,0,0,0,0,0,0,0,0,0,0,0,0,0,0,0,0,0,0,0,0,0,0,0,0,0,0,0,0,0,0,0,0,0,0,0,0,0,0,0,0,0,0,0,0,0,0,0,0,0,0,0,0,0,0,0,0,0,0,0,0,0,0,0,0,0],"sum_hessian":[3.988E3,1.293E3,2.695E3,2.7E2,1.023E3,2.239E3,4.56E2,2.47E2,2.3E1,9.39E2,8.4E1,1.031E3,1.208E3,3.7E2,8.6E1,2.15E2,3.2E1,1.9E1,4E0,7.93E2,1.46E2,5.3E1,3.1E1,6.35E2,3.96E2,3.41E2,8.67E2,1.18E2,2.52E2,7.7E1,9E0,9.1E1,1.24E2,6E0,1.3E1,1E0,3E0,2.85E2,5.08E2,2.5E1,2.8E1,8E0,2.3E1,3.51E2,2.84E2,2.99E2,9.7E1,3.48E2,5.19E2,1.03E2,1.5E1,1.4E2,1.12E2,6.3E1,1.4E1,5.4E1,3.7E1,1.2E2,4E0,3E0,3E0,1E0,2E0,7.4E1,2.11E2,2.27E2,2.81E2,2E1,8E0,1.2E1,1.1E1,1.81E2,1.7E2,2.55E2,2.9E1,9.3E1,2.06E2,3.22E2,2.6E1,3.06E2,2.13E2,2.8E1,7.5E1,4.9E1,9.1E1,9.8E1,1.4E1,5.6E1,7E0,1E1,4E0],"tree_param":{"num_deleted":"0","num_feature":"8","num_nodes":"91","size_leaf_vector":"1"}},{"base_weights":[-2.0055152E-2,-6.483771E-1,2.815282E-1,-2.804428E-1,-7.451172E-1,3.8794643E-1,-2.4070022E-1,-6.22449E-1,-8.62069E-2,-7.755319E-1,-4E-1,7.451299E-1,2.5230768E-1,-3.61186E-1,2.7586207E-1,-9.166667E-1,-1.5384616E-1,1.23188406E-1,-8.648649E-1,-7.342569E-1,-9.9319726E-2,-6.111111E-1,-3.125E-2,4.5090908E-1,9.795322E-2,-2.0985691E-1,5.436309E-1,5.042017E-2,-5.533597E-1,1.923077E-1,8.9999996E-2,-9.818182E-2,-1.6666667E-1,-1.8421052E-1,5E-2,3.2E-2,9.2857145E-2,-9.69697E-2,-0E0,-8.625337E-1,-6.20283E-1,-9.615385E-2,-2.7586207E-1,3.5714287E-1,-3.1578946E-1,1.7032968E-1,9.893617E-2,-3.1514084E-1,7.580645E-1,3.4336284E-1,8.0369514E-1,-8.6538464E-2,9.375E-2,-7.9432625E-1,-2.4778761E-1,2.65625E-1,-1.3333334E-1,2.5E-2,-6.666667E-2,-4.166667E-3,-4.0000003E-2,4.9586776E-3,-4.0000003E-2,-5E-2,2.5E-2,-9.956141E-2,-6.458333E-2,-6.388889E-2,-3.448276E-2,-0E0,-8.888889E-2,-2.5E-2,5.454546E-2,2.857143E-2,-6.1538465E-2,9.5808385E-3,9.375E-2,-6.626017E-2,-4.9535604E-3,5.8333334E-2,9.62963E-2,2.6534652E-2,9.836066E-2,6.1363637E-2,9.9532716E-2,-2.7586207E-2,-1.3157895E-3,-8.907563E-2,-2.6086956E-2,-3.4343433E-2,4.0000003E-2,2.1052632E-2,6.25E-2,-3.636364E-2,4.0000003E-2],"categories":[],"categories_nodes":[],"categories_segments":[],"categories_sizes":[],"default_left":[0,0,0,0,0,0,0,0,0,0,0,0,0,0,0,0,0,0,0,0,0,0,0,0,0,0,0,0,0,0,0,0,0,0,0,0,0,0,0,0,0,0,0,0,0,0,0,0,0,0,0,0,0,0,0,0,0,0,0,0,0,0,0,0,0,0,0,0,0,0,0,0,0,0,0,0,0,0,0,0,0,0,0,0,0,0,0,0,0,0,0,0,0,0,0],"id":15,"left_children":[1,3,5,7,9,11,13,15,17,19,21,23,25,27,29,31,33,35,37,39,-1,41,43,45,-1,47,49,51,53,55,-1,-1,57,59,-1,61,-1,-1,63,65,67,-1,69,71,73,75,-1,77,79,81,83,85,-1,87,89,91,93,-1,-1,-1,-1,-1,-1,-1,-1,-1,-1,-1,-1,-1,-1,-1,-1,-1,-1,-1,-1,-1,-1,-1,-1,-1,-1,-1,-1,-1,-1,-1,-1,-1,-1,-1,-1,-1,-1],"loss_changes":[7.560639E2,4.584967E1,1.4992258E2,1.7948835E1,1.04383545E1,1.083353E2,2.8542587E1,1.33703575E1,2.8476774E1,7.7158203E0,6.5979156E0,4.204138E1,2.1890291E2,2.9373951E1,4.3639255E0,2.7681808E0,8.663967E-1,1.0105226E1,3.3546276E0,1.1073425E1,0E0,6.0786915E0,3.6492012E0,4.1378128E1,0E0,6.4338135E1,5.165036E1,1.4538825E1,1.8432236E1,1.8976765E0,0E0,0E0,1.4166667E0,1.1521932E0,0E0,9.695207E-1,0E0,0E0,7.5E-1,1.0056122E1,1.9527283E0,0E0,4.904215E0,1.737013E0,3.599769E0,1.0315214E1,0E0,5.238643E1,1.6580048E0,2.7960442E1,1.5159668E1,1.4412082E0,0E0,7.0208435E0,7.138714E0,1.1356907E0,1.9878788E0,0E0,0E0,0E0,0E0,0E0,0E0,0E0,0E0,0E0,0E0,0E0,0E0,0E0,0E0,0E0,0E0,0E0,0E0,0E0,0E0,0E0,0E0,0E0,0E0,0E0,0E0,0E0,0E0,0E0,0E0,0E0,0E0,0E0,0E0,0E0,0E0,0E0,0E0],"parents":[2147483647,0,0,1,1,2,2,3,3,4,4,5,5,6,6,7,7,8,8,9,9,10,10,11,11,12,12,13,13,14,14,15,15,16,16,17,17,18,18,19,19,21,21,22,22,23,23,25,25,26,26,27,27,28,28,29,29,32,32,33,33,35,35,38,38,39,39,40,40,42,42,43,43,44,44,45,45,47,47,48,48,49,49,50,50,51,51,53,53,54,54,55,55,56,56],"right_children":[2,4,6,8,10,12,14,16,18,20,22,24,26,28,30,32,34,36,38,40,-1,42,44,46,-1,48,50,52,54,56,-1,-1,58,60,-1,62,-1,-1,64,66,68,-1,70,72,74,76,-1,78,80,82,84,86,-1,88,90,92,94,-1,-1,-1,-1,-1,-1,-1,-1,-1,-1,-1,-1,-1,-1,-1,-1,-1,-1,-1,-1,-1,-1,-1,-1,-1,-1,-1,-1,-1,-1,-1,-1,-1,-1,-1,-1,-1,-1],"split_conditions":[4.5E2,4E0,2.5881904E-1,-7.0710677E-1,1E0,1E0,1.5E3,2.5881904E-1,2.5881904E-1,2.5881904E-1,2.5881904E-1,-7.0710677E-1,4E0,1E0,1E0,1E0,4E0,1E0,1E0,-7.0710677E-1,-7.292535E-1,-7.0710677E-1,-7.0710677E-1,2.5881904E-1,4.3555108E-1,1E0,1.5E3,1E0,4E0,2E0,7.598305E-1,-3.820505E-1,1E0,1E0,4.2016983E-2,3E0,4.6354944E-1,-2.7894422E-1,5E-1,2.5881904E-1,1.6E1,-3.0794278E-1,1E0,5E0,3E0,1E0,5.398003E-1,-7.0710677E-1,-7.0710677E-1,1E0,-7.0710677E-1,5.5E2,3.2634735E-1,1E0,1E0,1.5E1,3E0,1.0903549E-2,-3.577385E-2,-8.943177E-3,-5.6630325E-2,6.51474E-3,-1.1608506E-2,-6.024704E-2,1.913414E-2,-7.4263346E-1,-1.2172928E-1,-1.4488392E-1,-7.516575E-2,-1.5239716E-3,-2.9651794E-1,-9.4070437E-4,1.4757538E-2,1.5036583E-2,-3.6431503E-2,2.4308586E-2,1.2065076E0,-4.026352E-1,-5.7239532E-3,1.9225807E-1,7.8724235E-1,5.490761E-2,1.8700145E0,3.3045083E-1,9.176979E-1,-2.7638817E-2,-1.9062043E-3,-2.6048538E-1,-3.7193682E-2,-6.587296E-2,1.3467579E-1,3.902874E-2,9.104347E-2,-1.0722923E-2,1.165741E-1],"split_indices":[5,3,0,0,7,3,5,1,0,0,1,0,3,3,7,7,2,7,7,0,0,0,0,1,0,7,5,7,3,2,0,0,2,2,0,2,0,0,0,1,4,0,6,4,4,7,0,0,0,7,0,5,0,7,7,4,2,0,0,0,0,0,0,0,0,0,0,0,0,0,0,0,0,0,0,0,0,0,0,0,0,0,0,0,0,0,0,0,0,0,0,0,0,0,0],"split_type":[0,0,0,0,0,0,0,0,0,0,0,0,0,0,0,0,0,0,0,0,0,0,0,0,0,0,0,0,0,0,0,0,0,0,0,0,0,0,0,0,0,0,0,0,0,0,0,0,0,0,0,0,0,0,0,0,0,0,0,0,0,0,0,0,0,0,0,0,0,0,0,0,0,0,0,0,0,0,0,0,0,0,0,0,0,0,0,0,0,0,0,0,0,0,0],"sum_hessian":[3.988E3,1.293E3,2.695E3,2.7E2,1.023E3,2.239E3,4.56E2,9.7E1,1.73E2,9.39E2,8.4E1,6.15E2,1.624E3,3.7E2,8.6E1,5.9E1,3.8E1,1.37E2,3.6E1,7.93E2,1.46E2,5.3E1,3.1E1,2.74E2,3.41E2,6.28E2,9.96E2,1.18E2,2.52E2,7.7E1,9E0,5.4E1,5E0,3.7E1,1E0,1.24E2,1.3E1,3.2E1,4E0,3.7E2,4.23E2,2.5E1,2.8E1,1.3E1,1.8E1,1.81E2,9.3E1,5.67E2,6.1E1,5.64E2,4.32E2,1.03E2,1.5E1,1.4E2,1.12E2,6.3E1,1.4E1,3E0,2E0,2.3E1,1.4E1,1.2E2,4E0,1E0,3E0,2.27E2,1.43E2,3.95E2,2.8E1,2E1,8E0,3E0,1E1,6E0,1.2E1,1.66E2,1.5E1,2.45E2,3.22E2,3.5E1,2.6E1,5.04E2,6E1,2.19E2,2.13E2,2.8E1,7.5E1,1.18E2,2.2E1,9.8E1,1.4E1,5.6E1,7E0,1E1,4E0],"tree_param":{"num_deleted":"0","num_feature":"8","num_nodes":"95","size_leaf_vector":"1"}},{"base_weights":[-1.5041363E-2,-6.2364763E-1,2.7707714E-1,-2.6568267E-1,-7.1777344E-1,3.7723213E-1,-2.1444201E-1,-6.22449E-1,-6.321839E-2,-7.5212765E-1,-3.2941177E-1,1.3468993E-1,5.839537E-1,-3.073048E-1,3.9344263E-1,-9.166667E-1,-1.5384616E-1,1.23188406E-1,-7.567568E-1,-7.065491E-1,-9.9319726E-2,-5.37037E-1,3.125E-2,-1.336478E-1,5.6423175E-1,9.678363E-2,4.3202764E-1,-4.28125E-1,1.923077E-1,8.636364E-1,1.25E-1,-9.818182E-2,-1.6666667E-1,-1.8421052E-1,5E-2,3.2E-2,9.2857145E-2,-8.4848486E-2,-0E0,-8.5175204E-1,-5.778302E-1,-8.8461536E-1,-2.0689656E-1,3.5714287E-1,-2.1052632E-1,-2.2495607E-1,6.3235295E-1,4.2333335E-1,9.897959E-2,2.8653296E-2,7.019231E-1,-8.6538464E-2,-5.8986175E-1,2.65625E-1,-1.3333334E-1,9.4444446E-2,4E-1,-3.181818E-1,6.315789E-1,2.5E-2,-6.666667E-2,-4.166667E-3,-4.0000003E-2,4.9586776E-3,-4.0000003E-2,-5E-2,2.5E-2,-9.956141E-2,-6.1805557E-2,-8.695652E-2,-5.597015E-2,-0E0,-9.583333E-2,-4.166667E-3,-8.3333336E-2,-2.5E-2,5.454546E-2,2.857143E-2,-4.6153847E-2,-4.1719746E-2,1.171875E-3,7.75E-2,4.1379314E-2,9.893617E-2,1.6425122E-2,-4.9535604E-3,9.62963E-2,4.95114E-2,9.9532716E-2,-2.7586207E-2,-1.3157895E-3,-8.235294E-2,-3.0303031E-2,2.1052632E-2,6.25E-2,-3.636364E-2,4.0000003E-2,7.5E-2,-5E-2,8.3333336E-2,-7.058824E-2,3.0000001E-2,8.9999996E-2],"categories":[],"categories_nodes":[],"categories_segments":[],"categories_sizes":[],"default_left":[0,0,0,0,0,0,0,0,0,0,0,0,0,0,0,0,0,0,0,0,0,0,0,0,0,0,0,0,0,0,0,0,0,0,0,0,0,0,0,0,0,0,0,0,0,0,0,0,0,0,0,0,0,0,0,0,0,0,0,0,0,0,0,0,0,0,0,0,0,0,0,0,0,0,0,0,0,0,0,0,0,0,0,0,0,0,0,0,0,0,0,0,0,0,0,0,0,0,0,0,0,0,0],"id":16,"left_children":[1,3,5,7,9,11,13,15,17,19,21,23,25,27,29,31,33,35,37,39,-1,41,43,45,47,-1,49,51,53,55,57,-1,59,61,-1,63,-1,-1,65,67,69,71,73,75,77,79,81,83,-1,85,87,89,91,93,95,-1,97,99,101,-1,-1,-1,-1,-1,-1,-1,-1,-1,-1,-1,-1,-1,-1,-1,-1,-1,-1,-1,-1,-1,-1,-1,-1,-1,-1,-1,-1,-1,-1,-1,-1,-1,-1,-1,-1,-1,-1,-1,-1,-1,-1,-1,-1],"loss_changes":[7.093578E2,4.3408997E1,1.3279985E2,1.953564E1,1.3414307E1,1.12232025E2,2.591849E1,1.33703575E1,2.2587992E1,9.626587E0,6.381794E0,1.1902607E2,7.0092865E1,2.4046558E1,7.591467E0,2.7681808E0,8.663967E-1,1.0105226E1,2.568386E0,1.4347961E1,0E0,6.0134583E0,2.5965695E0,4.4625492E1,2.338562E1,0E0,9.447809E1,1.7628025E1,1.8976765E0,4.4646454E-1,9.18122E0,0E0,1.4166667E0,1.1521932E0,0E0,9.695207E-1,0E0,0E0,7.5E-1,1.1857697E1,1.7557526E0,1.6955128E0,2.9669538E0,1.737013E0,2.4985542E0,2.5893646E1,1.7993393E0,4.3831844E1,0E0,2.5543074E1,3.1060059E1,1.4412082E0,1.4294487E1,1.1356907E0,1.9878788E0,0E0,1.95E0,1.0409982E1,1.4210525E0,0E0,0E0,0E0,0E0,0E0,0E0,0E0,0E0,0E0,0E0,0E0,0E0,0E0,0E0,0E0,0E0,0E0,0E0,0E0,0E0,0E0,0E0,0E0,0E0,0E0,0E0,0E0,0E0,0E0,0E0,0E0,0E0,0E0,0E0,0E0,0E0,0E0,0E0,0E0,0E0,0E0,0E0,0E0,0E0],"parents":[2147483647,0,0,1,1,2,2,3,3,4,4,5,5,6,6,7,7,8,8,9,9,10,10,11,11,12,12,13,13,14,14,15,15,16,16,17,17,18,18,19,19,21,21,22,22,23,23,24,24,26,26,27,27,28,28,29,29,30,30,32,32,33,33,35,35,38,38,39,39,40,40,41,41,42,42,43,43,44,44,45,45,46,46,47,47,49,49,50,50,51,51,52,52,53,53,54,54,56,56,57,57,58,58],"right_children":[2,4,6,8,10,12,14,16,18,20,22,24,26,28,30,32,34,36,38,40,-1,42,44,46,48,-1,50,52,54,56,58,-1,60,62,-1,64,-1,-1,66,68,70,72,74,76,78,80,82,84,-1,86,88,90,92,94,96,-1,98,100,102,-1,-1,-1,-1,-1,-1,-1,-1,-1,-1,-1,-1,-1,-1,-1,-1,-1,-1,-1,-1,-1,-1,-1,-1,-1,-1,-1,-1,-1,-1,-1,-1,-1,-1,-1,-1,-1,-1,-1,-1,-1,-1,-1,-1],"split_conditions":[4.5E2,4E0,2.5881904E-1,-7.0710677E-1,1E0,-7.0710677E-1,1E0,2.5881904E-1,2.5881904E-1,2.5881904E-1,2.5881904E-1,2.5881904E-1,1E0,1.5E3,6E2,1E0,4E0,1E0,1E0,-7.0710677E-1,-6.5632814E-1,-7.0710677E-1,-7.0710677E-1,1E0,1.5E3,3.91996E-1,4E0,1E0,2E0,1.3E1,4E0,-3.4384558E-1,1E0,1E0,3.7815094E-2,3E0,4.1719437E-1,-2.5104982E-1,5E-1,2.5881904E-1,1E0,2E0,1.2E1,5E0,3E0,4E0,1E0,1E0,5.6297076E-1,1E0,1.5E3,5.5E2,4E0,1.5E1,3E0,1.6332702E-1,5E-1,1E0,1.5E3,9.813309E-3,-3.219643E-2,-8.049011E-3,-5.0967406E-2,5.8631897E-3,-1.0447693E-2,-5.422249E-2,1.7220689E-2,-6.6837007E-1,-1.0955639E-1,-1.4665489E-1,-1.2103386E-1,-1.534688E-1,-2.7714846E-1,-4.922104E-3,-2.6931E-2,-8.4648136E-4,1.3281631E-2,1.35328295E-2,-3.2788467E-2,-1.6500492E-1,2.898407E-3,3.7616846E-1,2.8743973E-1,4.8582038E-1,6.042061E-2,-5.1513673E-3,7.08518E-1,1.256672E-1,8.2592815E-1,-2.4875069E-2,-1.7154694E-3,-2.344369E-1,-5.9285738E-2,3.5125922E-2,8.193894E-2,-9.650612E-3,1.0491677E-1,2.3034325E-1,-1.03889085E-1,3.9162675E-1,-1.4036523E-1,7.6768495E-2,6.838474E-1],"split_indices":[5,3,0,0,7,0,7,1,0,0,1,1,3,5,5,7,2,7,7,0,0,0,0,7,5,0,3,3,2,4,3,0,2,2,0,2,0,0,0,1,4,4,4,4,4,3,2,3,0,7,5,5,3,4,2,0,0,3,5,0,0,0,0,0,0,0,0,0,0,0,0,0,0,0,0,0,0,0,0,0,0,0,0,0,0,0,0,0,0,0,0,0,0,0,0,0,0,0,0,0,0,0,0],"split_type":[0,0,0,0,0,0,0,0,0,0,0,0,0,0,0,0,0,0,0,0,0,0,0,0,0,0,0,0,0,0,0,0,0,0,0,0,0,0,0,0,0,0,0,0,0,0,0,0,0,0,0,0,0,0,0,0,0,0,0,0,0,0,0,0,0,0,0,0,0,0,0,0,0,0,0,0,0,0,0,0,0,0,0,0,0,0,0,0,0,0,0,0,0,0,0,0,0,0,0,0,0,0,0],"sum_hessian":[3.988E3,1.293E3,2.695E3,2.7E2,1.023E3,2.239E3,4.56E2,9.7E1,1.73E2,9.39E2,8.4E1,1.031E3,1.208E3,3.96E2,6E1,5.9E1,3.8E1,1.37E2,3.6E1,7.93E2,1.46E2,5.3E1,3.1E1,6.35E2,3.96E2,3.41E2,8.67E2,3.19E2,7.7E1,2.1E1,3.9E1,5.4E1,5E0,3.7E1,1E0,1.24E2,1.3E1,3.2E1,4E0,3.7E2,4.23E2,2.5E1,2.8E1,1.3E1,1.8E1,5.68E2,6.7E1,2.99E2,9.7E1,3.48E2,5.19E2,1.03E2,2.16E2,6.3E1,1.4E1,1.7E1,4E0,2.1E1,1.8E1,3E0,2E0,2.3E1,1.4E1,1.2E2,4E0,1E0,3E0,2.27E2,1.43E2,2.2E1,4.01E2,2E0,2.3E1,2.3E1,5E0,3E0,1E1,6E0,1.2E1,3.13E2,2.55E2,3.9E1,2.8E1,9.3E1,2.06E2,3.22E2,2.6E1,3.06E2,2.13E2,2.8E1,7.5E1,1.18E2,9.8E1,5.6E1,7E0,1E1,4E0,3E0,1E0,5E0,1.6E1,9E0,9E0],"tree_param":{"num_deleted":"0","num_feature":"8","num_nodes":"103","size_leaf_vector":"1"}},{"base_weights":[-8.022061E-3,-6.0664606E-1,2.7930266E-1,-2.509225E-1,-7.001953E-1,6.3623977E-1,1.4569536E-1,-6.020408E-1,-5.172414E-2,-6.4942527E-1,-9.806452E-2,7.483766E-1,5.042017E-2,-2.912874E-1,4.2677826E-1,-9.166667E-1,-1.02564104E-1,1.23188406E-1,-7.027027E-1,-7.9706603E-1,-5.1731604E-1,4.8727274E-1,9.561404E-2,-6.7307696E-2,8.125E-1,-3.7463558E-1,3.9285713E-1,2.1861152E-1,6.9749516E-1,-9.818182E-2,-1.6666667E-1,-2.0588236E-1,5E-1,3.2E-2,9.2857145E-2,-7.8787886E-2,-0E0,-9.8814234E-2,-4.8407644E-1,-5.542453E-1,-1.02564104E-1,2.2527473E-1,9.893617E-2,1.8518519E-2,-1.5686275E-1,9.166667E-2,4E-1,-5.2653927E-1,-4.1666668E-2,6.2903225E-1,-2.6086956E-1,1.4593698E-1,8E-1,5.5014324E-1,9.9415205E-2,2.5E-2,-6.666667E-2,-4.545455E-3,-4.6153847E-2,8.0000006E-2,-5E-2,4.9586776E-3,-4.0000003E-2,-5E-2,2.5E-2,-5.486111E-2,2.1428572E-2,-8.695652E-2,-5.348259E-2,2.2727273E-2,-5E-2,1.5568863E-2,9.375E-2,-1.5625E-2,2.6086956E-2,-2.6190478E-2,3.0000001E-2,7.5E-2,-5E-2,-9.7972974E-2,-3.1790122E-2,5.138889E-2,-3.1724136E-2,8.684211E-2,2.4E-2,8.571429E-2,-7.058824E-2,2.2970296E-2,-2.8282827E-2,8.8524595E-2,4.0000003E-2,2.1138212E-2,7.3127754E-2],"categories":[],"categories_nodes":[],"categories_segments":[],"categories_sizes":[],"default_left":[0,0,0,0,0,0,0,0,0,0,0,0,0,0,0,0,0,0,0,0,0,0,0,0,0,0,0,0,0,0,0,0,0,0,0,0,0,0,0,0,0,0,0,0,0,0,0,0,0,0,0,0,0,0,0,0,0,0,0,0,0,0,0,0,0,0,0,0,0,0,0,0,0,0,0,0,0,0,0,0,0,0,0,0,0,0,0,0,0,0,0,0,0],"id":17,"left_children":[1,3,5,7,9,11,13,15,17,19,-1,21,23,25,27,29,31,33,35,37,39,41,-1,43,45,47,49,51,53,-1,55,57,59,61,-1,-1,63,-1,65,67,69,71,-1,73,75,-1,77,79,81,83,85,87,89,91,-1,-1,-1,-1,-1,-1,-1,-1,-1,-1,-1,-1,-1,-1,-1,-1,-1,-1,-1,-1,-1,-1,-1,-1,-1,-1,-1,-1,-1,-1,-1,-1,-1,-1,-1,-1,-1,-1,-1],"loss_changes":[6.862754E2,4.288562E1,1.2847797E2,1.8923197E1,1.3943298E1,4.8180145E1,2.412364E2,1.5306515E1,1.9898954E1,1.6556732E1,0E0,3.2950836E1,1.0731133E1,4.3997253E1,6.719084E1,2.7681808E0,2.53092E0,1.0105226E1,2.2145786E0,2.3981873E1,7.019371E0,3.5952354E1,0E0,8.022667E-1,3.208332E-1,3.46754E1,1.3133191E1,2.848795E1,2.2140106E1,0E0,1.4166667E0,1.3735089E0,2.2E0,9.695207E-1,0E0,0E0,7.5E-1,0E0,7.193325E0,2.1312408E0,5.226107E0,8.874142E0,0E0,2.327949E0,2.5260506E0,0E0,1.95E0,4.4222885E1,3.3231995E1,5.5656357E0,1.2048228E1,2.1722282E1,2.2032814E0,2.126049E1,0E0,0E0,0E0,0E0,0E0,0E0,0E0,0E0,0E0,0E0,0E0,0E0,0E0,0E0,0E0,0E0,0E0,0E0,0E0,0E0,0E0,0E0,0E0,0E0,0E0,0E0,0E0,0E0,0E0,0E0,0E0,0E0,0E0,0E0,0E0,0E0,0E0,0E0,0E0],"parents":[2147483647,0,0,1,1,2,2,3,3,4,4,5,5,6,6,7,7,8,8,9,9,11,11,12,12,13,13,14,14,15,15,16,16,17,17,18,18,19,19,20,20,21,21,23,23,24,24,25,25,26,26,27,27,28,28,30,30,31,31,32,32,33,33,36,36,38,38,39,39,40,40,41,41,43,43,44,44,46,46,47,47,48,48,49,49,50,50,51,51,52,52,53,53],"right_children":[2,4,6,8,10,12,14,16,18,20,-1,22,24,26,28,30,32,34,36,38,40,42,-1,44,46,48,50,52,54,-1,56,58,60,62,-1,-1,64,-1,66,68,70,72,-1,74,76,-1,78,80,82,84,86,88,90,92,-1,-1,-1,-1,-1,-1,-1,-1,-1,-1,-1,-1,-1,-1,-1,-1,-1,-1,-1,-1,-1,-1,-1,-1,-1,-1,-1,-1,-1,-1,-1,-1,-1,-1,-1,-1,-1,-1,-1],"split_conditions":[4.5E2,4E0,1E0,-7.0710677E-1,2.5881904E-1,2.5881904E-1,4E0,2.5881904E-1,2.5881904E-1,-7.0710677E-1,-5.840419E-1,-7.0710677E-1,1E0,1E0,1.5E3,1E0,1.4E1,1E0,1E0,2.5881904E-1,1E0,2.5881904E-1,3.5279655E-1,8E0,2E0,2.5881904E-1,2.5881904E-1,1E0,2.5881904E-1,-3.0946103E-1,1E0,1E1,1E0,3E0,3.7547493E-1,-2.259449E-1,5E-1,-5.867204E-1,1E0,1E0,9E0,1E0,4.372383E-1,5E-1,2E0,1.6656876E-1,1.1E1,-7.0710677E-1,5.5E2,3E0,5.5E2,2.5881904E-1,2.5881904E-1,-7.0710677E-1,6.306822E-1,8.832169E-3,-2.8976822E-2,-2.4187852E-2,-5.1545143E-2,1.4380264E-1,-3.1464387E-2,5.276871E-3,-9.402848E-3,-4.880028E-2,1.5498734E-2,-9.860077E-2,4.651642E-3,-1.3198948E-1,-1.089304E-1,3.2855987E-3,-2.4237825E-2,3.8378336E-2,1.04824E0,-1.4066315E-2,2.006874E-2,-5.862999E-2,3.181572E-2,4.1789094E-1,-5.508423E-3,-4.6839294E-1,-6.92997E-2,1.2627983E-1,-7.563458E-2,6.392773E-1,1.254673E-1,6.615658E-2,-1.2632866E-1,4.248047E-2,-5.3357314E-2,1.6737088E0,1.1353169E-1,6.593018E-2,6.1607665E-1],"split_indices":[5,3,3,0,0,0,3,1,0,0,0,0,7,7,5,7,4,7,7,1,7,1,0,4,2,1,0,7,1,0,2,4,6,2,0,0,0,0,7,4,4,7,0,0,2,0,4,0,5,3,5,0,0,0,0,0,0,0,0,0,0,0,0,0,0,0,0,0,0,0,0,0,0,0,0,0,0,0,0,0,0,0,0,0,0,0,0,0,0,0,0,0,0],"split_type":[0,0,0,0,0,0,0,0,0,0,0,0,0,0,0,0,0,0,0,0,0,0,0,0,0,0,0,0,0,0,0,0,0,0,0,0,0,0,0,0,0,0,0,0,0,0,0,0,0,0,0,0,0,0,0,0,0,0,0,0,0,0,0,0,0,0,0,0,0,0,0,0,0,0,0,0,0,0,0,0,0,0,0,0,0,0,0,0,0,0,0,0,0],"sum_hessian":[3.988E3,1.293E3,2.695E3,2.7E2,1.023E3,7.33E2,1.962E3,9.7E1,1.73E2,8.69E2,1.54E2,6.15E2,1.18E2,7.68E2,1.194E3,5.9E1,3.8E1,1.37E2,3.6E1,4.08E2,4.61E2,2.74E2,3.41E2,1.03E2,1.5E1,6.85E2,8.3E1,6.76E2,5.18E2,5.4E1,5E0,3.3E1,5E0,1.24E2,1.3E1,3.2E1,4E0,2.52E2,1.56E2,4.23E2,3.8E1,1.81E2,9.3E1,5.3E1,5E1,1.1E1,4E0,4.7E2,2.15E2,6.1E1,2.2E1,6.02E2,7.4E1,3.48E2,1.7E2,3E0,2E0,2.1E1,1.2E1,4E0,1E0,1.2E2,4E0,1E0,3E0,1.43E2,1.3E1,2.2E1,4.01E2,2.1E1,1.7E1,1.66E2,1.5E1,3.1E1,2.2E1,4.1E1,9E0,3E0,1E0,1.47E2,3.23E2,7.1E1,1.44E2,3.7E1,2.4E1,6E0,1.6E1,5.04E2,9.8E1,6E1,1.4E1,1.22E2,2.26E2],"tree_param":{"num_deleted":"0","num_feature":"8","num_nodes":"93","size_leaf_vector":"1"}},{"base_weights":[-6.0165455E-3,-5.741886E-1,2.666914E-1,-2.4354243E-1,-6.611328E-1,6.226158E-1,1.3346918E-1,-6.22449E-1,-2.8735632E-2,-6.034483E-1,-9.806452E-2,7.3214287E-1,5.042017E-2,-2.60078E-1,3.8661087E-1,-9.166667E-1,-1.5384616E-1,1.3768116E-1,-6.486486E-1,-7.7261615E-1,-4.5238096E-1,4.8727274E-1,9.269006E-2,-6.7307696E-2,8.125E-1,5.734767E-2,-4.3991855E-1,1.9202363E-1,6.396917E-1,-9.818182E-2,-1.6666667E-1,-1.8421052E-1,5E-2,4.8E-2,9.2857145E-2,-7.2727275E-1,-0E0,-9.802371E-2,-4.3312103E-1,-4.8349056E-1,-1.02564104E-1,2.2527473E-1,9.893617E-2,-1.0309278E-1,3.75E-1,9.166667E-2,4E-1,-1.45E-1,5.625E-1,-5.125858E-1,1.4545454E-1,1.3266999E-1,6.666667E-1,7.713626E-1,-2.2988506E-2,2.5E-2,-6.666667E-2,-4.166667E-3,-4.0000003E-2,1.2162163E-2,-5.769231E-3,-6.25E-2,-8.9999996E-2,-5E-2,2.5E-2,-4.9305554E-2,2.1428572E-2,-4.2307694E-2,-6.0431655E-2,2.2727273E-2,-5E-2,1.5568863E-2,9.375E-2,-3.4615386E-2,-1.3888889E-3,-0E0,7.5E-2,7.5E-2,-5E-2,-7.7611946E-2,1.716418E-2,6.6129036E-2,2.1052632E-2,-7.919463E-2,-3.6678202E-2,-1.75E-2,9.375E-2,2.0198021E-2,-2.2222223E-2,-5E-2,7.571428E-2,5.5000003E-2,9.9532716E-2,-1.4102565E-2,8.9999996E-2],"categories":[],"categories_nodes":[],"categories_segments":[],"categories_sizes":[],"default_left":[0,0,0,0,0,0,0,0,0,0,0,0,0,0,0,0,0,0,0,0,0,0,0,0,0,0,0,0,0,0,0,0,0,0,0,0,0,0,0,0,0,0,0,0,0,0,0,0,0,0,0,0,0,0,0,0,0,0,0,0,0,0,0,0,0,0,0,0,0,0,0,0,0,0,0,0,0,0,0,0,0,0,0,0,0,0,0,0,0,0,0,0,0,0,0],"id":18,"left_children":[1,3,5,7,9,11,13,15,17,19,-1,21,23,25,27,29,31,33,35,37,39,41,-1,43,45,47,49,51,53,-1,55,57,-1,59,-1,61,63,-1,65,67,69,71,-1,73,75,-1,77,79,81,83,85,87,89,91,93,-1,-1,-1,-1,-1,-1,-1,-1,-1,-1,-1,-1,-1,-1,-1,-1,-1,-1,-1,-1,-1,-1,-1,-1,-1,-1,-1,-1,-1,-1,-1,-1,-1,-1,-1,-1,-1,-1,-1,-1],"loss_changes":[6.182288E2,3.7038605E1,1.2775325E2,2.2039263E1,1.8281494E1,4.596353E1,1.9566092E2,1.33703575E1,1.8039831E1,2.1884003E1,0E0,2.8925598E1,1.0731133E1,4.392436E1,5.87265E1,2.7681808E0,8.663967E-1,9.743486E0,1.8869781E0,2.8404358E1,4.978195E0,3.5952354E1,0E0,1.6847738E0,3.208332E-1,2.8599937E1,2.0960457E1,1.8983858E1,4.5303436E1,0E0,1.4166667E0,1.1521932E0,0E0,9.796716E-1,0E0,2.0454407E-2,7.5E-1,0E0,6.197571E0,2.8393326E0,5.226107E0,8.874142E0,0E0,2.0983458E0,1.125E0,0E0,1.95E0,4.0100967E1,2.6425095E0,1.750933E1,1.4123864E1,1.4877271E1,8.2952385E0,2.0919586E1,9.605306E0,0E0,0E0,0E0,0E0,0E0,0E0,0E0,0E0,0E0,0E0,0E0,0E0,0E0,0E0,0E0,0E0,0E0,0E0,0E0,0E0,0E0,0E0,0E0,0E0,0E0,0E0,0E0,0E0,0E0,0E0,0E0,0E0,0E0,0E0,0E0,0E0,0E0,0E0,0E0,0E0],"parents":[2147483647,0,0,1,1,2,2,3,3,4,4,5,5,6,6,7,7,8,8,9,9,11,11,12,12,13,13,14,14,15,15,16,16,17,17,18,18,19,19,20,20,21,21,23,23,24,24,25,25,26,26,27,27,28,28,30,30,31,31,33,33,35,35,36,36,38,38,39,39,40,40,41,41,43,43,44,44,46,46,47,47,48,48,49,49,50,50,51,51,52,52,53,53,54,54],"right_children":[2,4,6,8,10,12,14,16,18,20,-1,22,24,26,28,30,32,34,36,38,40,42,-1,44,46,48,50,52,54,-1,56,58,-1,60,-1,62,64,-1,66,68,70,72,-1,74,76,-1,78,80,82,84,86,88,90,92,94,-1,-1,-1,-1,-1,-1,-1,-1,-1,-1,-1,-1,-1,-1,-1,-1,-1,-1,-1,-1,-1,-1,-1,-1,-1,-1,-1,-1,-1,-1,-1,-1,-1,-1,-1,-1,-1,-1,-1,-1],"split_conditions":[4.5E2,4E0,1E0,-7.0710677E-1,2.5881904E-1,2.5881904E-1,4E0,2.5881904E-1,2.5881904E-1,-7.0710677E-1,-5.2563775E-1,-7.0710677E-1,1E0,5.5E2,1.5E3,1E0,4E0,1E0,1E0,2.5881904E-1,1E0,2.5881904E-1,3.175167E-1,1.5E1,2E0,2.5881904E-1,1E0,1E0,2.5881904E-1,-2.7851486E-1,1E0,1E0,3.6452483E-2,1E1,3.3792764E-1,1.1E1,5E-1,-5.2804846E-1,1E0,-5E-1,9E0,1E0,3.9351463E-1,5.5E2,1E0,1.4991188E-1,1.1E1,-7.0710677E-1,-5E-1,-7.0710677E-1,2.5881904E-1,2.5881904E-1,-9.659258E-1,-7.0710677E-1,1E0,7.949066E-3,-2.6079178E-2,-2.089691E-3,-4.3451693E-2,7.110977E-3,-1.3367462E-2,-1.3441621E-1,-3.4740946E-1,-4.3920137E-2,1.3948822E-2,-8.874073E-2,4.1866302E-3,-8.506928E-2,-1.4110623E-1,2.9571534E-3,-2.1813964E-2,3.4540366E-2,9.434158E-1,-3.832779E-2,-6.427765E-4,-3.3269883E-3,7.7510074E-2,3.761017E-1,-4.9575805E-3,-3.0734664E-1,2.27314E-2,1.6304322E-1,3.7669566E-2,-3.8749686E-1,-9.098492E-2,-1.7555237E-2,7.667107E-1,3.8232423E-2,-4.80217E-2,-1.2318611E-1,1.4585193E0,2.1416397E-1,6.80267E-1,-2.8858567E-2,5.538551E-1],"split_indices":[5,3,3,0,0,0,3,1,0,0,0,0,7,5,5,7,2,7,7,1,7,1,0,4,2,1,7,7,0,0,2,2,0,4,0,4,0,0,7,1,4,7,0,5,2,0,4,0,0,0,1,0,0,0,7,0,0,0,0,0,0,0,0,0,0,0,0,0,0,0,0,0,0,0,0,0,0,0,0,0,0,0,0,0,0,0,0,0,0,0,0,0,0,0,0],"split_type":[0,0,0,0,0,0,0,0,0,0,0,0,0,0,0,0,0,0,0,0,0,0,0,0,0,0,0,0,0,0,0,0,0,0,0,0,0,0,0,0,0,0,0,0,0,0,0,0,0,0,0,0,0,0,0,0,0,0,0,0,0,0,0,0,0,0,0,0,0,0,0,0,0,0,0,0,0,0,0,0,0,0,0,0,0,0,0,0,0,0,0,0,0,0,0],"sum_hessian":[3.988E3,1.293E3,2.695E3,2.7E2,1.023E3,7.33E2,1.962E3,9.7E1,1.73E2,8.69E2,1.54E2,6.15E2,1.18E2,7.68E2,1.194E3,5.9E1,3.8E1,1.37E2,3.6E1,4.08E2,4.61E2,2.74E2,3.41E2,1.03E2,1.5E1,2.78E2,4.9E2,6.76E2,5.18E2,5.4E1,5E0,3.7E1,1E0,1.24E2,1.3E1,3.2E1,4E0,2.52E2,1.56E2,4.23E2,3.8E1,1.81E2,9.3E1,9.6E1,7E0,1.1E1,4E0,1.99E2,7.9E1,4.36E2,5.4E1,6.02E2,7.4E1,4.32E2,8.6E1,3E0,2E0,2.3E1,1.4E1,7.3E1,5.1E1,2.3E1,9E0,1E0,3E0,1.43E2,1.3E1,2.85E2,1.38E2,2.1E1,1.7E1,1.66E2,1.5E1,2.5E1,7.1E1,4E0,3E0,3E0,1E0,6.6E1,1.33E2,6.1E1,1.8E1,1.48E2,2.88E2,3.9E1,1.5E1,5.04E2,9.8E1,5E0,6.9E1,2.19E2,2.13E2,7.7E1,9E0],"tree_param":{"num_deleted":"0","num_feature":"8","num_nodes":"95","size_leaf_vector":"1"}},{"base_weights":[-8.523439E-3,-5.4791343E-1,2.5037092E-1,-2.2878228E-1,-6.3183594E-1,3.5223213E-1,-2.4945295E-1,-5.816327E-1,-2.8735632E-2,-5.689655E-1,-9.806452E-2,1.09496124E-1,5.591398E-1,-3.1738034E-1,1.9672132E-1,-8.5E-1,-1.5384616E-1,1.3768116E-1,-6.486486E-1,-7.530562E-1,-4.047619E-1,-1.745283E-1,5.6423175E-1,4.6485943E-1,9.9532716E-2,-8.6538464E-2,-3.9795917E-1,8.125E-1,-2.173913E-2,-9.090909E-2,-1.6666667E-1,-1.8421052E-1,5E-2,4.8E-2,9.2857145E-2,-7.2727275E-1,-0E0,-9.644269E-1,-4.0764332E-1,-4.3632075E-1,-5.1282052E-2,1.8131869E-1,-3.1648353E-1,4.2333335E-1,9.897959E-2,8.8011694E-1,2.4732825E-1,1.8518519E-2,-1.9607843E-1,-7.058824E-1,-1.875E-1,9.166667E-2,4E-1,-2.7027026E-1,8.9999996E-2,2.5E-2,-6.666667E-2,-4.166667E-3,-4.0000003E-2,1.2162163E-2,-5.769231E-3,-6.25E-2,-8.9999996E-2,-5E-2,2.5E-2,-9.956141E-2,-6.538462E-2,-4.652778E-2,2.1428572E-2,-3.7412588E-2,-5.611511E-2,1.2121213E-2,-8.571429E-2,1.0778443E-2,9.375E-2,-8.421053E-2,-0E0,9.893617E-2,1.6425122E-2,8.169643E-2,9.9159665E-2,1.769616E-2,9.824561E-2,-1.5625E-2,2.6086956E-2,-2.6190478E-2,1.0000001E-2,-3.409091E-2,-9.0789475E-2,1.923077E-2,-2.5165563E-2,7.5E-2,-5E-2,4.1666668E-2,-5.7692308E-2],"categories":[],"categories_nodes":[],"categories_segments":[],"categories_sizes":[],"default_left":[0,0,0,0,0,0,0,0,0,0,0,0,0,0,0,0,0,0,0,0,0,0,0,0,0,0,0,0,0,0,0,0,0,0,0,0,0,0,0,0,0,0,0,0,0,0,0,0,0,0,0,0,0,0,0,0,0,0,0,0,0,0,0,0,0,0,0,0,0,0,0,0,0,0,0,0,0,0,0,0,0,0,0,0,0,0,0,0,0,0,0,0,0,0,0],"id":19,"left_children":[1,3,5,7,9,11,13,15,17,19,-1,21,23,25,27,29,31,33,35,37,39,41,43,45,-1,47,49,51,53,-1,55,57,-1,59,-1,61,63,65,67,69,71,73,75,77,-1,79,81,83,85,87,89,-1,91,93,-1,-1,-1,-1,-1,-1,-1,-1,-1,-1,-1,-1,-1,-1,-1,-1,-1,-1,-1,-1,-1,-1,-1,-1,-1,-1,-1,-1,-1,-1,-1,-1,-1,-1,-1,-1,-1,-1,-1,-1,-1],"loss_changes":[5.571812E2,3.451172E1,1.3734845E2,1.9112236E1,2.1898132E1,1.124404E2,1.3912945E1,1.1120014E1,1.8039831E1,2.5993835E1,0E0,1.3338748E2,4.9256104E1,7.3501472E0,8.223583E0,2.2712135E0,8.663967E-1,9.743486E0,1.8869781E0,2.9468018E1,5.131424E0,3.21845E1,2.338562E1,8.975244E1,0E0,1.2004567E0,1.8920387E1,3.208332E-1,1.0780964E1,0E0,1.4166667E0,1.1521932E0,0E0,9.796716E-1,0E0,2.0454407E-2,7.5E-1,1.7996063E0,5.727295E0,3.0819168E0,5.5251412E0,1.0019104E1,7.568953E1,4.3831844E1,0E0,1.5976868E0,3.3708298E1,2.327949E0,1.020168E0,8.46426E0,4.336952E0,0E0,1.95E0,8.034476E0,0E0,0E0,0E0,0E0,0E0,0E0,0E0,0E0,0E0,0E0,0E0,0E0,0E0,0E0,0E0,0E0,0E0,0E0,0E0,0E0,0E0,0E0,0E0,0E0,0E0,0E0,0E0,0E0,0E0,0E0,0E0,0E0,0E0,0E0,0E0,0E0,0E0,0E0,0E0,0E0,0E0],"parents":[2147483647,0,0,1,1,2,2,3,3,4,4,5,5,6,6,7,7,8,8,9,9,11,11,12,12,13,13,14,14,15,15,16,16,17,17,18,18,19,19,20,20,21,21,22,22,23,23,25,25,26,26,27,27,28,28,30,30,31,31,33,33,35,35,36,36,37,37,38,38,39,39,40,40,41,41,42,42,43,43,45,45,46,46,47,47,48,48,49,49,50,50,52,52,53,53],"right_children":[2,4,6,8,10,12,14,16,18,20,-1,22,24,26,28,30,32,34,36,38,40,42,44,46,-1,48,50,52,54,-1,56,58,-1,60,-1,62,64,66,68,70,72,74,76,78,-1,80,82,84,86,88,90,-1,92,94,-1,-1,-1,-1,-1,-1,-1,-1,-1,-1,-1,-1,-1,-1,-1,-1,-1,-1,-1,-1,-1,-1,-1,-1,-1,-1,-1,-1,-1,-1,-1,-1,-1,-1,-1,-1,-1,-1,-1,-1,-1],"split_conditions":[4.5E2,4E0,2.5881904E-1,-7.0710677E-1,2.5881904E-1,-7.0710677E-1,1E0,2.5881904E-1,2.5881904E-1,-7.0710677E-1,-4.7307387E-1,2.5881904E-1,1.5E3,1E0,1E0,1E0,4E0,1E0,1E0,2.5881904E-1,1E0,1E0,1.5E3,1E0,6.1224025E-1,8E0,4E0,2E0,1.5E3,-2.5066337E-1,1E0,1E0,3.280716E-2,1E1,3.0413476E-1,1.1E1,5E-1,1E0,1E0,-5E-1,1.4E1,1E0,4E0,1E0,4.2218897E-1,6E2,1E0,5E-1,2E0,5.5E2,5E2,1.3492051E-1,1.1E1,5.5E2,4.9846956E-1,7.1540833E-3,-2.3471355E-2,-1.8806458E-3,-3.910637E-2,6.399918E-3,-1.2030792E-2,-1.2097454E-1,-3.126684E-1,-3.9528277E-2,1.2553788E-2,-4.9005643E-1,-1.3795681E-1,-7.98666E-2,3.7677765E-3,-7.656231E-2,-1.2699567E-1,1.1146546E-3,-2.9038621E-2,3.108616E-2,8.490742E-1,-3.57951E-1,1.3771058E-4,3.54163E-1,5.9563637E-2,2.1191101E-1,4.2149258E-1,3.1177903E-2,1.2333243E0,-1.2595749E-2,1.8126106E-2,-4.8934557E-2,2.8698731E-2,-6.522503E-2,-2.761061E-1,4.2038348E-2,-4.63912E-2,3.3849144E-1,-4.46167E-3,2.7028656E-2,-8.8941954E-2],"split_indices":[5,3,0,0,0,0,7,1,0,0,0,1,5,3,3,7,2,7,7,1,7,3,5,3,0,4,3,2,5,0,2,2,0,4,0,4,0,7,7,1,4,7,3,3,0,5,7,0,2,5,5,0,4,5,0,0,0,0,0,0,0,0,0,0,0,0,0,0,0,0,0,0,0,0,0,0,0,0,0,0,0,0,0,0,0,0,0,0,0,0,0,0,0,0,0],"split_type":[0,0,0,0,0,0,0,0,0,0,0,0,0,0,0,0,0,0,0,0,0,0,0,0,0,0,0,0,0,0,0,0,0,0,0,0,0,0,0,0,0,0,0,0,0,0,0,0,0,0,0,0,0,0,0,0,0,0,0,0,0,0,0,0,0,0,0,0,0,0,0,0,0,0,0,0,0,0,0,0,0,0,0,0,0,0,0,0,0,0,0,0,0,0,0],"sum_hessian":[3.988E3,1.293E3,2.695E3,2.7E2,1.023E3,2.239E3,4.56E2,9.7E1,1.73E2,8.69E2,1.54E2,1.031E3,1.208E3,3.96E2,6E1,5.9E1,3.8E1,1.37E2,3.6E1,4.08E2,4.61E2,6.35E2,3.96E2,9.95E2,2.13E2,1.03E2,2.93E2,1.5E1,4.5E1,5.4E1,5E0,3.7E1,1E0,1.24E2,1.3E1,3.2E1,4E0,2.52E2,1.56E2,4.23E2,3.8E1,1.81E2,4.54E2,2.99E2,9.7E1,3.41E2,6.54E2,5.3E1,5E1,1.18E2,1.75E2,1.1E1,4E0,3.6E1,9E0,3E0,2E0,2.3E1,1.4E1,7.3E1,5.1E1,2.3E1,9E0,1E0,3E0,2.27E2,2.5E1,1.43E2,1.3E1,2.85E2,1.38E2,3.2E1,6E0,1.66E2,1.5E1,1.7E2,2.84E2,9.3E1,2.06E2,2.23E2,1.18E2,5.98E2,5.6E1,3.1E1,2.2E1,4.1E1,9E0,4.3E1,7.5E1,2.5E1,1.5E2,3E0,1E0,1.1E1,2.5E1],"tree_param":{"num_deleted":"0","num_feature":"8","num_nodes":"95","size_leaf_vector":"1"}},{"base_weights":[-1.0027576E-3,-5.262751E-1,2.5111276E-1,-4.5923913E-1,-9.1099477E-1,3.46875E-1,-2.1881838E-1,-6.8577075E-1,-2.6711187E-1,-5.945946E-1,-9.806452E-2,1.1531008E-1,5.4425144E-1,-2.770781E-1,1.6393442E-1,-9.326923E-1,-2.871795E-1,1.23188406E-1,-3.8311687E-1,-6.666667E-1,-0E0,-1.5566038E-1,5.491184E-1,4.4678715E-1,9.9532716E-2,-9.448819E-2,-3.6162362E-1,1.923077E-2,8.9999996E-2,-9.822696E-2,-4.516129E-1,-3.314917E-1,2.6666668E-1,3.2E-2,9.2857145E-2,-3.3068782E-1,-6.117647E-1,-5.416667E-1,-8.9999996E-2,-5E-2,2.5E-1,1.8131869E-1,-2.901099E-1,4.0333334E-1,9.897959E-2,8.5672516E-1,2.3206107E-1,-1.2096774E-1,7.5E-2,-5.3797466E-1,-1.14035085E-1,4.6875E-1,-6.666667E-1,-6.1538465E-2,-3.1578947E-2,-5.3703703E-2,-2.4218751E-2,-2.5E-2,4.1666668E-2,4.9586776E-3,-4.0000003E-2,-3.7283238E-2,1.2121213E-2,-8.035714E-2,-2.3333333E-2,-6.315789E-2,-1.6666668E-2,-5E-2,6.666667E-2,1.0778443E-2,9.375E-2,-7.7192985E-2,-0E0,9.6808515E-2,1.4492753E-2,7.8125E-2,9.9159665E-2,1.6026711E-2,9.824561E-2,-2.020202E-2,1.923077E-2,-2.1739132E-3,-7.433628E-2,-1.747573E-2,4.1666668E-2,7.727273E-2,-1.818182E-2,-7.5E-2,5E-2],"categories":[],"categories_nodes":[],"categories_segments":[],"categories_sizes":[],"default_left":[0,0,0,0,0,0,0,0,0,0,0,0,0,0,0,0,0,0,0,0,0,0,0,0,0,0,0,0,0,0,0,0,0,0,0,0,0,0,0,0,0,0,0,0,0,0,0,0,0,0,0,0,0,0,0,0,0,0,0,0,0,0,0,0,0,0,0,0,0,0,0,0,0,0,0,0,0,0,0,0,0,0,0,0,0,0,0,0,0],"id":20,"left_children":[1,3,5,7,9,11,13,15,17,19,-1,21,23,25,27,29,31,33,35,37,39,41,43,45,-1,47,49,51,-1,-1,53,55,57,59,-1,61,63,65,-1,-1,67,69,71,73,-1,75,77,79,-1,81,83,85,87,-1,-1,-1,-1,-1,-1,-1,-1,-1,-1,-1,-1,-1,-1,-1,-1,-1,-1,-1,-1,-1,-1,-1,-1,-1,-1,-1,-1,-1,-1,-1,-1,-1,-1,-1,-1],"loss_changes":[5.2839264E2,3.295401E1,1.21400375E2,4.7866104E1,3.6260529E0,1.02317474E2,1.0236097E1,4.9533066E1,2.7167995E1,1.5855856E0,0E0,1.2139629E2,5.270749E1,6.0943813E0,6.479887E0,6.997772E0,4.874119E0,1.0105226E1,5.336052E0,4.7499943E-1,7.5E-1,2.8867645E1,2.5105728E1,8.747345E1,0E0,2.9306579E0,1.1771191E1,1.6345352E1,0E0,0E0,4.9523306E-1,3.1923828E0,1.2666665E0,9.695207E-1,0E0,7.2442436E0,5.9822845E0,7.0394754E-1,0E0,0E0,1.5833334E0,1.0019104E1,6.360023E1,4.3640232E1,0E0,2.7066803E0,3.51299E1,3.187426E0,0E0,1.673637E1,3.7465081E0,6.46875E0,2.416667E0,0E0,0E0,0E0,0E0,0E0,0E0,0E0,0E0,0E0,0E0,0E0,0E0,0E0,0E0,0E0,0E0,0E0,0E0,0E0,0E0,0E0,0E0,0E0,0E0,0E0,0E0,0E0,0E0,0E0,0E0,0E0,0E0,0E0,0E0,0E0,0E0],"parents":[2147483647,0,0,1,1,2,2,3,3,4,4,5,5,6,6,7,7,8,8,9,9,11,11,12,12,13,13,14,14,15,15,16,16,17,17,18,18,19,19,20,20,21,21,22,22,23,23,25,25,26,26,27,27,30,30,31,31,32,32,33,33,35,35,36,36,37,37,40,40,41,41,42,42,43,43,45,45,46,46,47,47,49,49,50,50,51,51,52,52],"right_children":[2,4,6,8,10,12,14,16,18,20,-1,22,24,26,28,30,32,34,36,38,40,42,44,46,-1,48,50,52,-1,-1,54,56,58,60,-1,62,64,66,-1,-1,68,70,72,74,-1,76,78,80,-1,82,84,86,88,-1,-1,-1,-1,-1,-1,-1,-1,-1,-1,-1,-1,-1,-1,-1,-1,-1,-1,-1,-1,-1,-1,-1,-1,-1,-1,-1,-1,-1,-1,-1,-1,-1,-1,-1,-1],"split_conditions":[4.5E2,2.5881904E-1,2.5881904E-1,-7.0710677E-1,4E0,-7.0710677E-1,1E0,2.5881904E-1,4E0,1E0,-4.2576647E-1,2.5881904E-1,1.5E3,6E2,1.5E3,1E0,1E0,1E0,1.4E1,1.1E1,5E-1,1E0,1.5E3,1E0,5.510163E-1,1.6E1,1.2E3,3E0,4.4862252E-1,-4.160103E-1,7E0,5E0,5E0,3E0,2.737213E-1,1E0,1.6E1,2E0,-2.8140163E-1,-3.5575487E-2,1E0,1E0,4E0,1E0,3.7997016E-1,6E2,1E0,3E0,8.6761095E-2,1E0,1.5E1,9E2,3E0,-1.1857452E-1,-8.486471E-2,-9.609356E-2,-4.007683E-2,-2.0225525E-3,1.799469E-2,4.6525956E-3,-9.813691E-3,-7.518711E-2,1.0032654E-3,-1.283909E-1,-1.9637108E-2,-9.947663E-2,-1.6362552E-1,-2.2871418E-1,1.9415474E-2,2.7977562E-2,7.6416665E-1,-3.2215595E-1,1.2397766E-4,3.1874657E-1,5.360737E-2,1.9071999E-1,3.7934324E-1,2.8060151E-2,1.1099917E0,-1.7173577E-2,3.783455E-2,-3.448105E-3,-2.0340243E-1,-3.254185E-2,2.0443344E-2,1.214283E-1,-1.11273766E-1,-5.9960555E-2,1.7635346E-3],"split_indices":[5,0,0,0,3,0,7,1,3,7,0,1,5,5,5,7,7,7,4,4,0,3,5,3,0,4,5,3,0,0,4,4,4,2,0,7,4,2,0,0,2,7,3,3,0,5,7,3,0,3,4,5,2,0,0,0,0,0,0,0,0,0,0,0,0,0,0,0,0,0,0,0,0,0,0,0,0,0,0,0,0,0,0,0,0,0,0,0,0],"split_type":[0,0,0,0,0,0,0,0,0,0,0,0,0,0,0,0,0,0,0,0,0,0,0,0,0,0,0,0,0,0,0,0,0,0,0,0,0,0,0,0,0,0,0,0,0,0,0,0,0,0,0,0,0,0,0,0,0,0,0,0,0,0,0,0,0,0,0,0,0,0,0,0,0,0,0,0,0,0,0,0,0,0,0,0,0,0,0,0,0],"sum_hessian":[3.988E3,1.293E3,2.695E3,1.103E3,1.9E2,2.239E3,4.56E2,5.05E2,5.98E2,3.6E1,1.54E2,1.031E3,1.208E3,3.96E2,6E1,3.11E2,1.94E2,1.37E2,4.61E2,3.2E1,4E0,6.35E2,3.96E2,9.95E2,2.13E2,1.26E2,2.7E2,5.1E1,9E0,2.81E2,3E1,1.8E2,1.4E1,1.24E2,1.3E1,3.77E2,8.4E1,2.3E1,9E0,1E0,3E0,1.81E2,4.54E2,2.99E2,9.7E1,3.41E2,6.54E2,1.23E2,3E0,1.57E2,1.13E2,3.1E1,2E1,1.2E1,1.8E1,5.3E1,1.27E2,3E0,1.1E1,1.2E2,4E0,3.45E2,3.2E1,5.5E1,2.9E1,1.8E1,5E0,1E0,2E0,1.66E2,1.5E1,1.7E2,2.84E2,9.3E1,2.06E2,2.23E2,1.18E2,5.98E2,5.6E1,9.8E1,2.5E1,4.5E1,1.12E2,1.02E2,1.1E1,2.1E1,1E1,1.9E1,1E0],"tree_param":{"num_deleted":"0","num_feature":"8","num_nodes":"89","size_leaf_vector":"1"}},{"base_weights":[2.506894E-3,-5.092736E-1,2.481454E-1,-1.99262E-1,-5.908203E-1,3.3705357E-1,-1.8818381E-1,-5.2040815E-1,-1.724138E-2,-5.229885E-1,-9.677419E-1,1.1531008E-1,5.2605456E-1,-2.5188917E-1,2.2950819E-1,-8.1666666E-1,-5.1282052E-2,1.23188406E-1,-5.405405E-1,-6.943765E-1,-3.7012988E-1,-9.9319726E-2,-4.4444445E-1,-1.4622642E-1,5.3400505E-1,4.246988E-1,9.9532716E-2,-3.5585585E-1,-1.1931818E-1,9.615385E-2,8.9999996E-2,-8.7272726E-2,-1.6666667E-1,-1.4705883E-1,5E-1,3.2E-2,9.2857145E-2,-6.060606E-1,-0E0,-9.486166E-1,-2.8025478E-1,-3.2539684E-1,-5.647059E-1,-0E0,-8.0000006E-2,-2.2144112E-1,4.852941E-1,3.9E-1,9.693878E-2,8.333333E-1,2.1068703E-1,-6.7307696E-2,-6.0504204E-1,1.923077E-1,-1.7218544E-1,3.6363637E-1,-3.5E-1,2.5E-2,-6.666667E-2,-0E0,-3.5714287E-2,8.0000006E-2,-5E-2,7.7669905E-3,-1.7391305E-2,-4.5833334E-2,-8.9999996E-2,-5E-2,2.5E-2,-9.956141E-2,-5E-2,-5.9574466E-2,-1.4414415E-2,-3.5549134E-2,-0E0,-7.3214285E-2,-2.3333333E-2,-6.666667E-2,6.666667E-2,9.5808385E-3,-3.5235733E-2,6.875E-2,-0E0,9.468085E-2,1.3526569E-2,7.544643E-2,9.747899E-2,1.4691152E-2,8.77193E-2,3.1746035E-3,-2.1428572E-2,-2.5E-2,-8.026316E-2,2.4E-2,-5E-2,-2.1014493E-2,2.1428572E-2,5.909091E-2,-8.333334E-3,5E-2,-6.666667E-2],"categories":[],"categories_nodes":[],"categories_segments":[],"categories_sizes":[],"default_left":[0,0,0,0,0,0,0,0,0,0,0,0,0,0,0,0,0,0,0,0,0,0,0,0,0,0,0,0,0,0,0,0,0,0,0,0,0,0,0,0,0,0,0,0,0,0,0,0,0,0,0,0,0,0,0,0,0,0,0,0,0,0,0,0,0,0,0,0,0,0,0,0,0,0,0,0,0,0,0,0,0,0,0,0,0,0,0,0,0,0,0,0,0,0,0,0,0,0,0,0,0],"id":21,"left_children":[1,3,5,7,9,11,13,15,17,19,21,23,25,27,29,31,33,35,37,39,41,-1,43,45,47,49,-1,51,53,55,-1,-1,57,59,61,63,-1,65,67,69,71,73,75,77,-1,79,81,83,-1,85,87,89,91,93,95,97,99,-1,-1,-1,-1,-1,-1,-1,-1,-1,-1,-1,-1,-1,-1,-1,-1,-1,-1,-1,-1,-1,-1,-1,-1,-1,-1,-1,-1,-1,-1,-1,-1,-1,-1,-1,-1,-1,-1,-1,-1,-1,-1,-1,-1],"loss_changes":[5.0159552E2,3.2595154E1,1.0464996E2,1.5832393E1,2.5674744E1,9.3817154E1,1.2218224E1,1.3578415E1,1.285329E1,2.2535385E1,1.623291E0,1.1308622E2,5.7081543E1,5.4293766E0,5.367655E0,2.0409088E0,2.13273E0,1.0105226E1,1.310401E0,4.2796265E1,3.8374825E0,0E0,1.4222223E0,3.031723E1,2.4512764E1,8.6927216E1,0E0,1.5921568E1,2.932678E0,6.3328676E0,0E0,0E0,1.4166667E0,1.0504202E0,2.2E0,1.1890113E0,0E0,1.0204544E0,7.5E-1,4.8363953E0,6.6559477E0,3.701622E0,4.545307E0,2.6666667E0,0E0,2.3666092E1,6.6727943E0,4.2423397E1,0E0,3.0800934E0,2.7713055E1,1.5209097E0,8.147499E0,9.784616E-1,2.2602386E0,3.401515E0,5.716666E0,0E0,0E0,0E0,0E0,0E0,0E0,0E0,0E0,0E0,0E0,0E0,0E0,0E0,0E0,0E0,0E0,0E0,0E0,0E0,0E0,0E0,0E0,0E0,0E0,0E0,0E0,0E0,0E0,0E0,0E0,0E0,0E0,0E0,0E0,0E0,0E0,0E0,0E0,0E0,0E0,0E0,0E0,0E0,0E0],"parents":[2147483647,0,0,1,1,2,2,3,3,4,4,5,5,6,6,7,7,8,8,9,9,10,10,11,11,12,12,13,13,14,14,15,15,16,16,17,17,18,18,19,19,20,20,22,22,23,23,24,24,25,25,27,27,28,28,29,29,32,32,33,33,34,34,35,35,37,37,38,38,39,39,40,40,41,41,42,42,43,43,45,45,46,46,47,47,49,49,50,50,51,51,52,52,53,53,54,54,55,55,56,56],"right_children":[2,4,6,8,10,12,14,16,18,20,22,24,26,28,30,32,34,36,38,40,42,-1,44,46,48,50,-1,52,54,56,-1,-1,58,60,62,64,-1,66,68,70,72,74,76,78,-1,80,82,84,-1,86,88,90,92,94,96,98,100,-1,-1,-1,-1,-1,-1,-1,-1,-1,-1,-1,-1,-1,-1,-1,-1,-1,-1,-1,-1,-1,-1,-1,-1,-1,-1,-1,-1,-1,-1,-1,-1,-1,-1,-1,-1,-1,-1,-1,-1,-1,-1,-1,-1],"split_conditions":[4.5E2,4E0,2.5881904E-1,-7.0710677E-1,2.5881904E-1,-7.0710677E-1,1E0,2.5881904E-1,2.5881904E-1,-7.0710677E-1,1E0,2.5881904E-1,1.5E3,4E0,1.5E3,1E0,1.4E1,1E0,1E0,2.5881904E-1,1.4E1,-3.8984329E-1,5E-1,1E0,1.5E3,1E0,4.9591446E-1,1E0,5E2,9E2,4.0376016E-1,-1.83996E-1,1E0,1E0,1E0,1.2246469E-16,2.4634933E-1,1.1E1,5E-1,1E0,5E0,1E0,1.6E1,5E0,-1.837842E-1,1E0,5E0,1E0,3.4197313E-1,6E2,1E0,1E1,5.5E2,3E0,1.5E1,3E0,3E0,1.4925385E-2,-9.266758E-3,-4.9129487E-3,-2.6058197E-2,1.3382721E-1,-2.3913193E-2,5.7920455E-3,-1.888199E-2,-9.8929405E-2,-2.532614E-1,-3.2017898E-2,9.35669E-3,-3.9944974E-1,-1.1470967E-1,-9.726868E-2,-3.2594014E-2,-6.766834E-2,9.0293883E-4,-1.1555176E-1,-1.7673302E-2,-1.22040175E-1,1.16816424E-1,2.5179863E-2,-1.0644684E-1,4.4404832E-1,1.7642975E-3,2.8687173E-1,4.8246574E-2,1.7164803E-1,3.4140873E-1,2.525406E-2,9.989924E-1,1.230812E-3,-1.4506531E-2,-5.698509E-2,-2.2815533E-1,3.4749985E-2,-2.6338235E-1,-3.4558486E-2,1.7617797E-2,1.09285355E-1,-6.917572E-3,2.0153427E-2,-1.3458633E-1],"split_indices":[5,3,0,0,0,0,7,1,0,0,7,1,5,3,5,7,4,7,7,1,4,0,0,7,5,3,0,3,5,5,0,0,2,2,6,0,0,4,0,7,4,7,4,4,0,3,3,3,0,5,7,4,5,2,4,3,4,0,0,0,0,0,0,0,0,0,0,0,0,0,0,0,0,0,0,0,0,0,0,0,0,0,0,0,0,0,0,0,0,0,0,0,0,0,0,0,0,0,0,0,0],"split_type":[0,0,0,0,0,0,0,0,0,0,0,0,0,0,0,0,0,0,0,0,0,0,0,0,0,0,0,0,0,0,0,0,0,0,0,0,0,0,0,0,0,0,0,0,0,0,0,0,0,0,0,0,0,